338 600
software -0.17786 0.012923 0.027386 -0.1484 -0.013855 -0.11502 -0.069463 0.059059 0.048672 -0.013172 0.079286 -0.11177 0.12747 0.017903 -0.041794 0.049404 0.039868 0.010369 0.10185 -0.050091 -0.18171 -0.0031556 0.0014775 0.096544 0.14884 -0.026244 0.11271 0.049951 0.088869 0.0229 0.091527 0.0031094 -0.00096117 -0.02719 -0.016954 -0.064607 -0.081458 0.1273 -0.065787 -0.03281 0.016754 -0.010912 -0.088834 -0.11241 -0.079989 -0.021294 0.049084 -0.028462 0.089646 0.017166 -0.069921 -0.077109 0.11633 0.025354 0.22098 -0.024938 0.10602 0.14862 -0.040228 0.11547 -0.0065153 -0.064942 -0.11425 -0.10841 -0.0021979 -0.077221 -0.0016398 -0.1377 0.13489 -0.088037 0.036346 0.10017 0.039736 0.12971 -0.057684 0.031364 0.15527 0.061937 0.0037272 0.18716 0.097042 -0.063881 -0.084484 0.11109 -0.016352 -0.020187 0.012762 0.097423 -0.14735 0.17022 -0.06342 0.15158 0.052635 0.075352 -0.0045007 0.064264 -0.011305 -0.10161 -0.094994 -0.074081 0.026714 -0.21925 -0.14648 -0.045352 -0.071228 -0.12167 0.22318 0.19383 -0.12107 -0.12784 -0.12257 0.069155 0.17212 -0.078504 0.061724 -0.081919 -0.21699 -0.036056 0.12797 -0.095327 0.03073 0.093698 0.17 0.17151 0.048572 0.090169 0.03507 -0.01168 -0.014937 -0.021866 -0.15242 -0.099818 0.074458 -0.064028 0.060263 -0.1125 0.014955 0.012622 -0.15859 0.12074 0.1023 -0.13429 -0.10248 0.0049726 -0.02533 -0.0082122 0.057153 0.0062017 -0.16112 -0.056914 -0.030753 -0.044728 0.014527 -0.096773 -0.052859 0.18078 -0.045429 0.061429 0.12555 0.013709 -0.080297 -0.11391 0.054182 0.069688 0.037951 -0.10197 0.17114 -0.081127 0.10968 -0.073889 0.13344 0.02053 0.02101 -0.11115 -0.067152 0.010004 0.01021 0.2104 0.011539 -0.12384 -0.057172 -0.0046074 -0.12548 -0.0038881 -0.016039 0.022944 0.014273 0.10421 0.036498 0.0006837 0.018536 -0.050137 0.031304 -0.10575 -0.03546 0.045253 0.10605 0.051365 0.013151 0.073301 -0.016056 0.082963 -0.05021 0.080097 0.025896 0.084311 0.053761 0.011339 -0.11965 0.11484 -0.013702 0.083843 0.0095784 -0.054691 0.041538 0.10172 -0.12316 0.11074 0.012005 -0.10034 -0.032906 0.16407 -0.0064631 0.23514 -0.018148 0.01801 0.22924 0.0059344 0.0054219 0.16355 -0.03078 -0.05127 -0.074784 -0.027054 0.049981 0.14523 0.042699 0.11018 -0.05109 0.16509 0.013578 0.10793 -0.10862 -0.0087392 -0.079379 0.11557 0.05011 0.062212 -0.0032164 -0.093349 -0.076971 -0.16928 -0.022357 -0.10431 0.086952 -0.041709 -0.035243 0.073841 -0.054092 -0.095232 -0.1271 0.1437 0.047481 -0.00089514 -0.066756 -0.10314 -0.11622 0.02766 -0.09656 -0.15127 -0.04352 -0.005974 0.075528 -0.033872 -0.030018 -0.010328 -0.05989 0.0065837 0.013042 -0.15582 0.11082 -0.096389 0.017887 -0.041287 0.10297 0.00087218 0.055902 -0.015546 -0.18875 -0.12241 -0.06369 -0.065542 -0.054743 0.041341 0.0061407 0.09984 0.061829 0.043727 0.096862 0.064259 0.1505 0.030323 0.13367 0.038853 0.018629 0.2671 0.064023 0.017988 0.013353 0.15568 -0.057715 -0.10226 -0.10464 0.15065 -0.091671 -0.14159 0.074477 -0.010738 0.073504 -0.074464 0.014087 -0.0072483 0.034983 -0.15448 0.13852 -0.1158 -0.017322 -0.038396 0.052189 0.20603 0.060012 0.068842 0.061586 -0.019048 0.0046343 -0.031781 0.032713 -0.030521 0.10144 0.13423 -0.025711 0.0010569 0.011788 0.0040574 0.075861 0.060437 -0.090188 -0.068617 0.0043092 -0.069217 -0.094689 -0.027605 -0.0041096 -0.059904 0.008186 0.049332 -0.11453 -0.095218 -0.16472 0.071659 0.12347 0.11168 0.054504 0.071343 -0.020767 0.13346 0.078244 -0.059552 0.014423 0.23733 -0.048021 -0.048504 -0.053559 -0.029571 -0.074467 0.088331 -0.097945 -0.059709 -0.11327 0.032504 0.0542 -0.052378 0.076763 0.032913 -0.059262 -0.12313 0.10136 -0.031554 0.12581 0.064541 0.0010593 0.096853 0.012483 0.018758 -0.045129 -0.0039439 -0.063747 0.03813 -0.073924 -0.048395 0.0044703 0.043487 0.028154 -0.037785 0.0077405 -0.02521 -0.0093066 0.084179 -0.074119 0.13661 0.043797 -0.076219 0.13421 0.097065 0.014802 -0.072426 0.017878 0.14797 0.032753 -0.051402 -0.034766 -0.17313 -0.09711 -0.00028499 -0.21349 0.068407 -0.089066 0.17925 -0.047904 -0.07705 -0.12341 0.0037834 0.18219 0.14438 0.013385 -0.037409 0.090756 0.061377 0.050484 0.17223 -0.014648 0.046097 -0.043404 -0.04489 0.17098 -0.00068362 -0.13762 -0.02067 -0.027996 0.034803 -0.042117 0.078437 0.0069705 0.038054 -0.069722 0.050108 -0.051483 -0.13239 0.10293 -0.081565 0.16398 0.22223 0.014223 0.14544 -0.091256 0.015644 0.0022379 0.038378 0.0088446 0.068322 -0.062143 -0.053185 0.047727 -0.054694 0.089969 -0.097291 0.016409 0.036317 -0.039588 0.014733 -0.040165 0.084703 -0.10926 -0.095632 0.019232 -0.19598 0.1055 -0.052483 -0.035819 -0.071975 0.12402 0.064891 0.024429 -0.05289 0.046339 0.038906 -0.1279 0.18614 0.015528 0.066715 -0.056326 0.072889 -0.044843 0.069603 -0.0045259 -0.062215 -0.13397 0.065783 -0.084279 0.055182 0.15596 0.087661 0.0033197 0.17004 -0.041592 0.038752 0.056932 0.02264 0.003222 -0.12659 0.19711 0.075352 -0.06871 -0.028776 -0.054177 0.056843 -0.15059 0.15076 0.06376 0.036857 -0.055858 -0.078391 0.034845 -0.071235 -0.018111 0.012002 0.021687 0.056228 0.072032 0.09742 0.0091417 0.011296 0.07213 -0.052787 -0.087149 -0.033083 -0.17828 -0.061771 0.049363 0.15086 0.11673 -0.11945 -0.15359 0.024096 0.097475 0.04316 -0.10187 -0.054991 0.025517 0.041075 -0.039327 -0.071587 0.071219 0.1513 -0.20896 -0.010309 0.11996 0.012075 -0.082024 -0.046141 0.017302 -0.1295 0.016364 0.070933 0.11641 -0.022021 0.067645 -0.054903 -0.071589 0.10141 -0.087111 -0.12577 -0.04312 -0.024319 0.027093 0.061301 -0.067967 -0.075864 -0.13158 0.27951 -0.024528 -0.010807 0.029979 0.1403 -0.18741 0.14757 0.048143 -0.17628 -0.04579 -0.018999 
continuous -0.11613 -0.086591 0.012903 -0.11439 0.035627 0.0039838 0.013537 0.069567 -0.076858 -0.11591 0.10051 -0.11097 -0.048364 0.026014 0.010307 0.084279 -0.029928 -0.022529 -0.11897 -0.041831 0.093302 -0.00022108 0.046998 -0.02048 -0.06558 0.022537 0.041977 0.061068 0.074556 0.12981 0.05427 -0.042975 -0.057501 -0.027452 -0.056013 0.13005 -0.021169 -0.0098571 -0.070201 -0.0067565 -0.0015764 -0.0091286 0.05385 -0.068668 -0.09773 0.005686 -0.12236 -0.062652 -0.054722 0.049825 0.059511 -0.13812 -0.0055231 0.0031404 0.094687 0.00067094 0.082895 0.039474 0.025223 0.1139 0.033208 -0.098814 0.087589 -0.21345 -0.1376 0.016349 -0.088533 -0.055594 0.081257 0.087264 -0.08513 0.10261 0.12236 -0.074384 -0.078741 0.018941 0.018751 -0.080515 -0.053168 0.038721 0.12659 -0.086771 -0.1155 0.031016 0.098241 -0.033231 -0.13827 -0.053029 -0.0049412 0.19145 0.024685 0.068281 0.011175 0.10697 0.081342 0.073044 -0.0035394 -0.076524 -0.089663 0.053718 0.020685 0.043824 -0.070233 -0.039525 -0.042253 -0.10143 0.092139 0.04111 -0.054681 -0.0075006 0.02027 0.023131 0.098728 0.064838 -0.19179 0.0061153 0.019834 0.070962 -0.024527 0.026859 -0.072191 0.025252 -0.031554 0.10421 -0.054864 0.081071 -0.22931 -0.22134 0.024957 -0.013023 0.073234 -0.066882 -0.1013 -0.15412 -0.094413 0.011302 0.11146 -0.066086 -0.061049 -0.13701 0.052638 -0.16194 0.070151 -0.046858 -0.057673 -0.14931 0.027792 -0.097729 0.054222 0.052219 -6.5253e-05 -0.018916 -0.041635 -0.011127 -0.074142 0.11538 -0.028535 0.079447 -0.0039003 -0.028351 -0.052681 -0.020189 0.080165 -0.028955 0.086386 -0.081028 -0.016723 0.012902 0.1302 0.0092359 -0.059567 -0.0071041 0.01725 0.10027 0.07804 -0.11527 0.070082 0.048886 0.056171 -0.16466 0.17356 -0.052184 -0.069381 0.036226 0.045339 0.12361 0.065775 -0.11815 0.090619 -0.0017217 0.13618 -0.04504 0.013638 0.10102 -0.010253 0.072486 -0.043361 0.11778 -0.10469 0.015565 -0.11048 0.13992 -0.042819 -0.15852 0.058784 -0.093796 -0.048225 -0.041701 -0.12404 0.091398 -0.0082371 0.061154 -0.015275 -0.13178 0.071359 -0.021556 -0.0068851 0.054455 -0.1083 0.05677 0.023978 0.076821 0.07917 0.030808 0.099763 0.080441 0.094475 0.044905 0.083379 0.033721 0.090634 0.016142 0.080171 0.01028 0.080312 0.089396 0.16558 -0.022472 -0.015641 0.15535 0.065955 0.06967 0.078188 0.066838 0.15517 -0.10773 -0.0084295 0.13349 -0.059428 -0.049352 -0.11752 0.009832 0.014483 0.057848 0.025979 -0.090488 -0.15112 0.13281 -0.079712 -0.065176 -0.1358 0.035144 0.10209 -0.14398 -0.040302 0.055246 -0.075046 0.051247 -0.13735 -0.082707 -0.13931 -0.061328 -0.09052 -0.071384 -0.14103 -0.056325 0.13252 0.20006 0.0078015 -0.010671 0.14415 -0.0015992 0.076861 0.0057154 0.06527 -0.015023 -0.083907 -0.080908 -0.017401 -0.16023 0.091951 0.061796 -0.01332 0.024367 0.063307 -0.0364 -0.11147 0.034892 0.14181 0.021117 -0.071296 0.062697 0.12934 -0.015864 -0.010002 0.25907 0.026787 0.0038408 0.015515 0.07102 0.13227 -0.16053 0.072621 0.0010521 0.10853 0.036209 0.07882 0.092563 0.028017 -0.23103 -0.0023645 -0.010931 -0.02825 -0.10613 -0.056513 -0.16552 -0.069672 0.12061 -0.14731 0.10703 0.15732 0.21535 0.018685 -0.012477 -0.085474 0.09615 -0.1215 -0.091006 0.16716 0.19601 0.11543 -0.1199 0.065241 0.048689 0.04771 -0.0075587 -0.045427 0.050869 0.010254 -0.064348 -0.047145 0.031183 0.19752 0.016361 -0.013165 -0.054588 -0.049655 -0.18218 -0.1634 0.12143 0.17681 -0.1181 0.077446 0.086682 -0.033951 0.1588 0.065109 0.013462 -0.12164 0.012939 -0.18059 -0.015907 -0.16954 -0.062663 -0.25975 0.2146 -0.044693 -0.033923 -0.14311 -0.020607 0.020577 0.12367 0.002581 -0.015429 -0.094138 -0.1449 0.23038 0.03492 0.22854 0.11445 -0.15177 0.13308 0.15842 0.049425 0.026933 0.035227 -0.037105 0.22862 -0.058902 -0.14306 0.093379 -0.055288 0.040609 -0.055194 0.10383 -0.013992 0.038345 0.16681 -0.0047732 0.0021473 -0.093122 -0.019738 0.20876 0.038157 -0.037117 0.054842 0.082541 0.069019 0.12542 -0.12555 -0.17018 -0.038194 -0.1119 0.014573 -0.027792 0.077604 -0.032534 0.10806 -0.056442 0.049468 0.013257 -0.1132 0.0040645 0.25109 -0.10501 -0.053863 0.31143 -0.095206 -0.013706 0.11749 -0.17709 -0.041691 -0.047571 -0.092114 0.058062 -0.057357 -0.058394 -0.16038 -0.049143 0.14368 -0.014575 -0.013882 -0.1903 0.038973 -0.12051 0.10037 -0.10707 -0.020983 0.14866 -0.084544 0.1709 0.22607 -0.052882 0.066771 -0.011807 -0.053022 0.16644 -0.0074495 0.071884 0.076528 0.039381 0.073745 -0.016841 -0.041396 -0.028313 0.045353 -0.066379 0.09625 0.10051 -0.12683 -0.030681 0.22125 -0.046099 -0.15569 -0.03688 0.002889 -0.0068663 -0.080599 -0.075682 -0.039429 0.14191 0.01055 0.0055484 -0.0008367 -0.0186 -0.016458 -0.16885 0.059315 -0.049412 -0.030174 -0.080789 0.10317 0.051178 0.075714 -0.16996 -0.066563 0.029628 0.12705 -0.13443 -0.036088 0.1733 0.067166 -0.11029 0.059903 -0.11243 0.029221 0.0083422 -0.0044025 -0.11901 -0.13611 0.11125 -0.089954 -0.047563 0.060999 -0.13756 -0.029814 -0.11186 0.18022 0.131 -0.040888 0.095716 -0.05512 0.02675 0.047354 -0.14189 0.033068 0.15259 0.035458 0.0065298 0.12075 -0.037435 0.090412 0.086037 -0.30172 -0.025414 -0.01995 -0.086631 -0.071573 0.16627 -0.018983 0.062943 -0.097692 -0.18888 0.13378 0.0092661 -0.0015454 -0.0987 0.088248 0.093117 0.075194 -0.14188 -0.1128 0.13105 -0.03322 -0.029596 0.011935 -0.023641 0.13608 -0.11919 -0.016787 0.0014796 -0.030473 -0.057019 0.049832 0.01005 -0.0044174 0.050562 -0.048941 0.035005 0.1542 -0.10286 -0.03929 -0.052052 0.055085 -0.0014393 -0.030755 -0.069495 0.058437 0.011174 0.054551 -0.0092503 -0.068986 0.10585 0.045764 -0.12924 0.032229 0.038302 -0.094257 -0.060238 -0.14405 
integration 0.019525 -0.011371 0.07075 -0.1302 -0.1349 -0.11032 -0.12377 0.043476 0.038938 0.02266 0.050538 -0.13942 0.023213 0.031311 -0.059252 -0.022067 0.11861 0.064211 0.070701 0.045587 -0.08161 -0.021398 -0.031501 0.061763 -0.03942 -0.066691 0.10412 0.014443 0.10009 -0.023094 -0.037649 0.031154 -0.043392 0.018638 0.11315 -0.036041 0.042444 0.031443 -0.04938 -0.084842 -0.059073 -0.031153 -0.091942 -0.13481 -0.12131 0.027365 -0.14043 -0.018419 0.11859 0.032822 -0.19621 0.073523 0.079715 0.061202 -0.045402 0.050202 0.14936 0.0013998 -0.017333 0.066632 0.0099772 -0.10259 -0.060049 -0.11092 0.11083 -0.095453 -0.097088 -0.11426 0.031467 -0.037154 0.026872 0.0084455 -0.044312 -0.073298 -0.039369 0.079322 0.16176 0.030786 0.0059622 -0.092988 -0.019053 -0.078043 -0.080813 0.031426 -0.083366 -0.10889 -0.039636 0.043157 -0.090434 0.027962 0.0418 0.12439 0.097053 0.027292 0.04032 0.1015 -0.16927 -0.14031 -0.12374 -0.079871 0.067498 -0.11709 -0.18582 -0.068466 -0.039027 0.0196 0.036239 0.13204 -0.054891 -0.12805 -0.063186 0.065254 0.087943 0.033807 -0.053541 0.055118 -0.090908 -0.004962 0.02447 -0.16065 -0.13614 -0.014507 0.056672 0.068145 -0.057194 -0.020221 0.02975 -0.050346 -0.10923 0.10471 -0.10352 -0.14205 -0.027791 -0.12639 0.01983 -0.025368 -0.043602 -0.043962 -0.006826 0.082435 0.071371 -0.01996 -0.021601 -0.0064882 0.022897 -0.039068 0.016743 0.075843 -0.1248 0.091498 -0.050032 0.08574 -0.033566 -0.079457 -0.056887 0.067442 -0.02813 0.093377 0.026851 -0.016671 0.047705 0.033333 0.033619 0.057123 0.039338 0.031983 0.098828 -0.0057549 -0.039635 -0.012453 0.065017 0.0020982 -0.00013949 -0.01936 -0.063269 -0.089091 0.063414 -0.0050664 -0.046452 -0.029916 0.073786 -0.012991 -0.092533 0.053779 0.0078111 -0.011764 0.012399 -0.048298 0.091597 0.081831 0.035735 -0.036019 0.054504 -0.049792 -0.01829 0.03781 0.076857 0.023335 -0.11009 0.019878 0.084007 0.0083486 -0.075162 0.042438 -0.032109 -0.02821 0.10468 0.062994 0.027936 0.043443 0.068106 0.014113 0.082268 -0.087072 0.02156 0.10803 -0.037076 0.16902 -0.029506 0.011742 0.069198 0.10957 -0.0010419 0.080192 -0.019183 0.029136 0.18566 -0.051472 0.057984 0.028231 0.0062681 -0.038279 -0.011879 0.01651 0.04621 0.071024 0.11361 0.034737 0.086881 0.0088617 0.028749 0.081711 -0.041253 -0.0043481 0.13697 0.067885 -0.0064665 0.0020795 0.023283 -0.25085 -0.11715 -0.12966 -0.048689 -0.027161 0.0015966 0.080586 -0.040368 0.08609 -0.087608 -0.13035 -0.15287 -0.066639 0.018857 -0.12202 0.0073525 0.028377 -0.059444 0.034029 -0.1395 -0.21256 0.020989 -0.024292 -0.057907 -0.031233 -0.062775 0.026245 -0.0635 -0.055702 0.056209 0.009986 0.087833 -0.019766 0.00988 -0.0038712 -0.036313 -0.013896 -0.010674 0.0040093 0.05445 -0.052645 -0.057942 0.022125 -0.010914 -0.040653 -0.011847 0.079207 0.050349 0.051607 0.03879 0.020228 -0.068156 -0.02622 0.001981 0.15873 -0.040603 0.1502 -0.0032344 0.074423 0.019672 0.16273 0.046762 -0.11988 -0.012083 0.026371 -0.1236 -0.073293 -0.021255 -0.076576 0.064944 -0.13664 -0.014987 -0.039563 0.056019 -0.060046 -0.017984 -0.081123 0.062495 0.011032 0.054776 0.14534 -0.024034 0.12446 0.040247 0.11568 -0.0713 -0.020434 -0.071435 0.0019151 0.03249 0.019134 -0.056011 -0.050092 0.16264 -0.10323 0.068668 0.047973 -0.058762 0.047124 -0.012558 0.041321 -0.02289 -0.073657 0.039539 -0.046679 0.017321 -0.13719 -0.074381 -0.068208 -0.033824 0.027704 0.11486 -0.045493 0.032686 0.0026445 0.040918 0.14136 0.098983 -0.043844 -0.037608 0.17883 -0.082353 -0.12192 -0.15079 0.024537 -0.11324 0.20713 -0.046704 -0.097071 -0.10395 0.069524 0.050026 0.038295 -0.023632 -0.080573 -0.10449 -0.13457 0.17599 0.010837 0.07081 0.0032512 -0.066441 0.11196 0.051978 0.083301 -0.048439 0.016223 0.039448 0.12234 0.0013406 0.057359 0.057219 -0.073817 -0.05859 0.0071838 -0.039377 0.0074385 0.013657 0.040722 0.0084638 -0.017759 -0.080767 -0.092143 0.099333 -0.0078476 -0.020101 0.06664 0.19766 0.1599 0.0018839 -0.17499 -0.12726 -0.015159 0.0024777 0.023016 0.01112 0.080765 0.021388 0.16701 -0.090493 0.070588 -0.015654 -0.076542 0.076295 0.17465 -0.019643 -0.061745 0.15449 -0.026523 0.045741 0.12097 -0.027034 -0.015292 -0.04203 0.048019 0.050565 -0.046926 -0.055178 -0.15948 0.010553 0.0014295 0.0067492 0.045404 -0.13476 0.069788 -0.11419 0.022402 -0.059244 -0.045629 0.086852 -0.092573 0.16887 0.17874 -0.01843 0.094488 -0.023827 -0.0054024 0.06913 0.093576 0.05394 0.13623 0.093025 0.034505 0.039533 0.053358 0.094747 0.047179 -0.031316 0.091604 -0.045854 -0.063675 -0.0056659 0.14509 -0.1628 -0.067565 -0.061725 -0.016773 0.068263 -0.10186 0.054952 -0.011884 0.14121 0.036334 0.077236 -0.0074496 -0.051829 0.049451 -0.047999 0.055022 -0.036478 0.028745 -0.035777 0.04697 -0.078037 0.028098 -0.22429 -0.12134 -0.025842 0.050432 -0.096862 0.032498 0.082081 0.15908 0.02186 0.098055 -0.086382 0.076207 0.018539 -0.053348 0.079303 -0.050805 0.23474 0.0023461 0.083672 -0.012197 -0.048248 0.084123 -0.16774 0.17053 0.084392 -0.034003 -0.04524 -0.14424 0.069494 -0.049871 -0.098324 0.057151 -0.040515 0.02069 0.047893 0.09331 0.05104 0.0091475 0.0042247 -0.02412 -0.088594 0.05402 -0.20171 -0.025387 0.011435 0.097553 0.041158 -0.11601 -0.20637 0.094539 0.15138 -0.08063 -0.015762 -0.04035 0.04351 0.094423 0.020573 -0.14761 0.045807 0.052819 -0.15306 0.031587 0.10086 0.0023032 -0.11021 -0.078971 -0.066353 0.022291 0.095816 -0.039644 0.18771 -0.043826 0.089195 -0.02479 -0.12572 0.12041 -0.060373 0.029748 -0.059495 0.0028665 0.01244 -0.034493 -0.10978 -0.0083701 -0.0018387 0.10502 0.039824 0.0019585 0.11209 0.11099 -0.093458 0.17219 -0.016937 -0.048923 -0.011323 0.01954 
development -0.013513 0.034185 0.060123 -0.093396 -0.11768 -0.10119 -0.12996 0.032408 0.065223 0.099476 0.039262 -0.13458 0.097538 0.0002923 -0.042947 -0.072735 0.054006 0.065363 0.09116 0.012854 -0.11306 0.019769 -0.0064219 0.070269 -0.015166 -0.036891 0.0080347 0.077395 0.070334 -0.0069461 0.043197 0.042686 -0.018844 0.0056677 0.12533 -0.081681 0.035107 0.053435 -0.054824 -0.060289 -0.029862 -0.031812 -0.099043 -0.096392 -0.1598 -0.021594 -0.067194 -0.059426 0.011099 -0.015889 -0.12363 0.020387 0.14776 -0.022701 -0.0050188 0.12308 0.15192 0.055254 0.0020537 0.1171 -0.018806 -0.16062 -0.15333 -0.062714 0.12006 -0.096755 -0.054898 -0.12932 0.028595 -0.12783 -0.011103 0.023428 -0.01752 0.0012885 -0.066136 0.014498 0.1054 0.038728 0.04088 -0.043824 0.080869 -0.038433 -0.067423 -0.0017519 -0.031334 -0.089207 0.093266 0.011854 -0.12708 0.027337 -0.065158 0.14596 0.015637 0.043645 0.038968 0.082289 -0.060531 -0.10666 -0.17324 -0.092996 0.0093089 -0.19662 -0.097411 0.024347 -0.024903 -0.061085 0.15865 0.1824 -0.050912 -0.088248 -0.14054 0.069393 0.16016 -0.034438 0.00023608 -0.049408 -0.19788 -0.076012 -0.039877 -0.1295 -0.045298 -0.0044589 0.10726 0.07288 0.056507 0.014447 -0.026199 -0.0679 -0.016196 -0.018601 -0.071483 -0.15482 0.074633 -0.043352 0.12424 -0.056766 0.06049 -0.047621 -0.046217 0.16498 0.037051 -0.072849 0.0021441 0.048938 -0.069205 -0.068184 0.092988 0.0032534 -0.10467 0.079855 -0.078101 0.02043 -0.0078947 -0.094238 -0.031235 0.094331 -0.0032883 0.053042 0.022979 0.0095253 -0.033865 -0.033554 0.013815 0.072597 0.04656 -0.051921 0.19045 -0.069005 -0.0067671 -0.055328 0.14494 0.049012 0.0021181 -0.034688 -0.061933 -0.0047382 0.038931 0.13548 0.019235 -0.091644 0.011108 -0.031764 -0.032056 0.061283 0.029582 0.005281 0.030243 0.071789 0.11748 0.13853 0.05539 -0.089884 -0.034844 -0.045622 -0.0025718 0.082487 0.12158 0.0093411 0.10589 0.063584 0.032806 0.052493 -0.079674 0.10472 -0.029986 0.067145 0.13831 0.093756 -0.087606 -0.0095017 -0.011923 0.051892 0.012659 -0.074419 0.0046942 0.11494 -0.068508 0.16167 -0.0055482 -0.024383 0.0206 0.14781 -0.01198 0.067275 -0.042345 0.035579 0.15658 -0.0055891 0.016064 0.11599 0.01083 -0.065052 -0.063336 -0.026502 0.11449 0.054446 0.074802 0.065699 -0.0041326 0.046432 0.029498 0.035119 -0.057176 -0.031281 0.055044 0.031101 0.023609 -0.016038 0.048861 -0.12334 0.021061 -0.12156 -0.025679 -0.11201 0.057864 0.00066222 -0.063916 0.084191 0.0018723 -0.059822 -0.15059 0.029001 0.019596 -0.073577 -0.099533 -0.066432 -0.016686 0.0041931 -0.10993 -0.24957 0.040375 -0.10727 -0.042197 0.0045613 0.0080222 -0.060419 -0.086252 -0.11399 0.04096 -0.063094 0.10832 -0.059752 0.09531 0.0072953 -0.0098501 -0.090135 -0.0065942 0.040518 0.0080632 -0.052801 0.015029 -0.020463 -0.073855 0.0011585 -0.039425 0.037206 -0.0021325 -0.046202 0.080778 -0.00099696 -0.013987 0.019624 0.038342 0.12463 0.038183 0.17068 0.024015 0.057437 0.086453 0.12141 -0.001328 -0.10296 -0.057205 0.034418 -0.077454 -0.16757 -0.061823 -0.030752 0.021817 -0.036555 -0.030321 0.036771 0.024037 -0.049936 0.016146 -0.010426 0.025877 -0.071831 0.13572 0.1726 -0.034491 0.091042 0.019257 0.01271 0.015566 -0.08622 0.0039945 0.043551 0.047999 -0.0064381 -0.097495 -0.029799 0.077774 -0.063469 0.095205 0.14714 -0.0093034 0.04027 0.054981 0.061255 -0.055968 -0.095921 0.053209 -0.026247 0.098407 -0.12138 -0.11942 -0.064574 -0.058278 -0.041578 0.10418 0.099271 0.0876 -0.0043728 0.020781 0.10059 0.13275 -0.065235 -0.067263 0.27636 0.0013182 -0.061012 -0.0047749 -0.0071754 -0.041888 0.044292 -0.16479 -0.065114 -0.10557 0.035738 -0.0020605 0.020507 0.038235 0.033258 -0.046848 -0.11518 0.11269 -0.04395 0.025134 0.036122 0.028769 0.15212 0.03813 0.011452 -0.026616 -0.028565 -0.053706 0.088304 -0.068359 0.0069793 0.020031 0.024713 0.0038528 -0.0079488 -0.029641 0.012763 0.020055 0.039523 -0.063705 0.033866 0.0068914 -0.035956 0.076093 0.023169 -0.02011 -0.0074039 0.088369 0.12843 -0.03769 -0.11014 -0.0096914 0.018053 -0.048703 0.025449 -0.12352 0.059534 0.00053392 0.16468 -0.033771 -0.0061854 -0.077146 -0.083439 0.13069 0.18124 -0.017709 0.031087 0.091414 -0.021776 0.06481 0.072168 -0.039001 0.065972 0.071288 0.022675 0.16811 0.02117 0.01125 -0.10876 0.073864 0.028101 0.00331 0.051433 -0.050837 0.057657 -0.054056 0.098153 -0.047032 -0.13873 0.048861 -0.09355 0.15359 0.082148 0.0011716 0.13574 -0.021253 0.080972 0.00021817 0.13489 0.068849 0.15061 0.0045153 -0.038322 -0.014653 -0.035482 0.06935 0.00654 -0.061285 -0.011089 -0.067638 0.0098456 0.020903 0.10763 -0.11585 -0.040122 0.041743 -0.13225 0.076863 -0.075615 -0.017468 -0.02517 0.10859 0.0016211 0.096723 -0.13137 -0.022534 0.00080985 -0.0057475 0.12608 0.025164 0.047126 0.031587 -0.012025 -0.013048 0.014336 -0.078913 -0.08401 -0.062633 -0.016528 -0.036753 0.028111 -0.063827 0.10201 0.056944 0.11114 -0.025525 0.012964 0.012493 -0.03729 0.076933 -0.054432 0.069857 0.094472 0.030076 -0.073731 -0.055676 0.082873 -0.046333 0.13277 0.053716 0.023361 -0.038958 -0.14987 0.010028 -0.086206 -0.0064327 -0.0022411 -0.074219 -0.011374 0.12117 0.021169 0.039592 0.022422 0.038934 -0.0054161 -0.033828 0.059831 -0.12882 -0.013491 -0.013497 0.14617 0.042923 -0.11162 -0.21081 0.075565 0.15493 0.033651 -0.071208 -0.08375 0.023573 0.029703 -0.0025639 -0.092448 -0.039352 0.098123 -0.15048 -0.073384 0.092336 0.033091 -0.20008 -0.079501 0.04973 0.0059535 0.022683 0.098834 0.12077 -0.023479 0.083141 -0.058764 -0.1102 0.10519 0.016871 0.093864 -0.015374 -0.0059732 -0.026391 0.013762 -0.040882 -0.045988 -0.044684 0.14588 0.026091 -0.10319 0.071414 0.12273 -0.078889 0.074192 -0.005756 -0.094548 -0.047465 0.046387 
agile 0.033877 0.053554 0.12854 -0.11611 0.012934 -0.0498 0.056942 -0.026025 -0.05749 0.087359 -0.048388 -0.13177 -0.074323 -0.051071 0.015407 0.011762 0.060743 0.086787 0.13075 0.074299 -0.079891 0.022068 0.093895 -0.03938 -0.08118 -0.030285 0.088484 0.039033 0.0055637 0.084211 0.12095 0.032924 -0.043282 0.073563 0.017552 -0.098126 -0.027356 0.051475 -0.14033 -0.10675 0.068254 -0.0021634 0.024822 -0.12877 -0.070488 -0.12664 -0.11819 -0.090819 0.15405 -0.025699 -0.14526 -0.024737 0.10664 0.097253 -0.18831 -0.00014371 0.13191 0.0031751 0.082526 0.082793 -0.10296 -0.15213 -0.039556 -0.13908 0.0004086 -0.045786 -0.047521 -0.14647 0.19111 -0.064502 -0.067304 -0.056093 0.026468 -0.13008 -0.12147 0.039353 0.059256 0.05604 -0.14739 -0.063351 0.054769 -0.007117 -0.17778 0.088998 0.047945 0.098885 0.0813 -0.015499 -0.11874 0.10731 -0.068309 0.13184 -0.079696 0.037289 0.051638 0.11466 -0.052937 -0.10547 -0.14891 -0.072057 -0.030303 0.022502 -0.025512 -0.012337 0.0087823 -0.018462 0.13861 0.083196 -0.057548 0.028057 -0.065752 0.049164 0.01158 0.027099 0.013592 -0.011539 -0.017369 0.06813 -0.022043 -0.044521 -0.0079409 0.1076 0.10616 0.12711 -0.017819 0.034866 -0.11567 -0.11504 -0.090317 -0.065587 0.046136 -0.066827 0.092707 0.056824 0.055847 -0.083328 0.038517 -0.028216 -0.1163 -0.098273 -0.048153 -0.1124 0.12986 -0.050679 -0.032245 0.00594 -0.014551 -0.045313 -0.065288 0.026153 -0.1509 0.008486 0.065651 0.022223 -0.13313 0.070672 0.0088231 0.030498 -0.086124 0.02197 0.021528 0.097063 0.068157 0.037132 0.10904 -0.056646 0.010811 0.099197 0.12805 -0.088619 0.027296 0.072683 0.028126 0.078717 -0.0021311 -0.12317 0.098329 0.061654 0.033534 -0.1127 0.056368 0.011142 -0.054744 -0.030805 0.044464 0.082521 -0.034033 -0.10616 0.035922 0.039945 0.088266 -0.044281 -0.028865 -0.0039085 -0.083165 0.011836 -0.053338 0.077903 0.012377 0.035577 -0.081277 0.066082 -0.036103 0.0055824 -0.030083 -0.082505 -0.0047673 -0.012738 -0.064562 -0.073572 -0.003408 0.01397 -0.036024 -0.17089 0.040377 0.088083 0.008188 0.10325 -0.0078552 0.070244 0.10547 0.046782 0.02272 0.071574 -0.068035 0.023879 -0.010586 -0.024791 -0.033343 0.061143 -0.045303 -0.053677 0.05454 -0.087161 0.13875 0.11036 0.12658 -0.0038771 -0.059879 0.12982 0.019297 0.082515 0.008442 -0.0044642 0.12014 -0.013341 0.013431 0.090763 0.051307 -0.1534 -0.11345 -0.03224 0.036165 -0.098682 -0.0031931 -0.017412 0.0030516 0.12713 0.04293 0.0083499 -0.095705 0.017398 0.054315 -0.093662 0.076723 0.10104 -0.12075 -0.014888 -0.087372 -0.1888 -0.03856 -0.0019898 -0.062438 -0.053735 0.023239 0.020828 0.0024844 0.058808 0.042721 0.17222 0.098529 -0.10314 0.077104 0.088962 0.070734 0.0034974 0.10933 -0.055611 0.081531 -0.049468 0.10469 0.11264 -0.010317 -0.025015 -0.063353 -0.030016 -0.078586 0.001094 0.0032259 0.001742 0.0029751 -0.0076197 0.11003 -0.019693 -0.026915 0.21944 0.05701 0.043751 0.054508 0.091956 0.070398 -0.05386 -0.1544 0.0037466 0.030806 -0.078142 -0.038929 -0.068344 0.13002 -0.10061 0.0049074 -0.05969 -0.090407 -0.031507 0.0036644 -0.10524 0.025443 0.063872 -0.0015264 0.048531 0.071103 0.03552 -0.090899 -0.047276 0.033845 0.043676 -0.011646 -0.028842 0.061758 0.084247 0.081554 -0.0791 0.15872 -0.032251 0.15663 -0.014528 -0.010636 0.06812 0.041678 0.034293 -0.11033 -0.097998 0.1517 0.075222 0.067719 -0.15086 -0.077462 -0.080665 -0.12064 0.098582 0.20769 -0.048585 0.10838 -0.018577 0.081722 0.19596 0.08119 -0.043204 0.076552 0.088917 -0.0091824 -0.049935 -0.18013 0.0010681 -0.051578 0.11619 -0.072117 -0.021298 -0.17364 -0.039677 0.011646 0.11332 0.025945 0.035169 0.019106 -0.15231 0.27554 0.054957 0.10957 -0.045197 0.0095565 0.26126 0.047491 0.073224 0.045707 0.0085641 -0.033273 0.17191 -0.097614 -0.038836 0.003045 -0.061176 0.029224 -0.025705 0.052634 0.0073294 -0.039622 0.074705 0.034222 0.028003 -0.023113 -0.057286 0.21731 -0.072842 0.031024 0.043146 -0.046374 0.10012 0.077588 -0.14644 -0.029353 0.060312 -0.0049324 0.070488 0.0054597 0.11573 -0.068905 0.070608 -0.17942 0.031273 -0.059853 -0.10549 0.08772 0.20836 -0.068416 -0.12696 0.13594 -0.026263 -0.043993 0.05265 -0.098534 0.068543 -0.033471 -0.085347 -0.035179 0.042085 0.046349 -0.12046 0.19606 0.10095 -0.076676 -0.053233 -0.071046 0.0070706 -0.099401 0.079095 -0.02912 0.013365 0.10677 -0.06793 0.06893 0.17415 0.071302 0.14506 -0.076286 -0.00066902 0.082495 0.13787 0.050722 0.071216 0.082746 0.11358 -0.020109 -0.088403 -0.02045 0.059888 0.033329 0.040035 0.065995 -0.21089 -0.059423 0.16621 -0.067754 0.0077271 -0.029731 0.029378 0.054134 -0.043138 -0.09136 -0.12942 0.068003 -0.031401 0.10407 0.15309 -0.073608 -0.02777 -0.073639 0.080919 0.079075 -0.035091 -0.066431 0.022008 -0.022636 0.023372 -0.11187 -0.031873 -0.03174 0.054857 -0.059519 0.045639 0.079452 0.078101 -0.079345 -0.003659 -0.0081198 -0.041605 0.092312 -0.023416 0.12946 -0.051632 0.16989 0.03949 0.026463 -0.036853 -0.10765 0.06907 -0.058839 0.22367 0.086027 -0.049668 -0.0042996 -0.15309 -0.010796 -0.040675 -0.088714 0.0102 0.037076 -0.06114 0.0089644 0.049748 0.14098 0.034835 0.076096 -0.14086 -0.14525 0.049815 -0.14539 -0.056711 0.025997 -0.0065295 -0.067558 0.016181 -0.18693 0.05443 0.038241 0.065245 -0.016754 -0.08768 0.039975 -0.048589 -0.018977 -0.018045 0.037288 0.093291 -0.10019 -0.0041295 0.081727 0.071867 -0.14108 0.065407 0.041822 -0.15566 -0.027164 0.13107 0.03082 -0.14062 0.1191 -0.018434 0.048602 0.080459 0.017663 -0.0043291 -0.028125 -0.062443 -0.010095 -0.047631 0.016926 -0.025602 0.0084476 0.012107 0.066206 -0.07409 0.046212 0.09859 -0.10191 -0.1551 0.071411 -0.10405 -0.022591 -0.072983 
of 0.032835 0.037653 0.13319 -0.10824 -0.10518 -0.094884 -0.04171 0.028883 -0.019895 -0.032166 0.061069 -0.075012 -0.057989 0.0013025 -0.049892 -0.0051787 -0.016682 0.0067491 -0.023323 0.04042 0.026698 -0.0015076 -0.057906 0.097019 -0.049625 -0.035941 0.055705 0.017373 -0.017846 -0.14222 0.069096 -0.015723 -0.017636 -0.019873 0.058777 -0.03993 -0.015494 -0.034009 -0.16315 -0.11015 0.015196 -0.10434 -0.071587 0.0050153 -0.0046359 -0.049391 -0.11827 0.052675 0.10719 0.033029 -0.022314 -0.11451 0.013903 0.06572 -0.068327 0.078067 0.082908 0.029291 0.08407 0.030714 -0.065901 -0.031541 -0.029397 0.016348 -0.038608 -0.022105 0.024659 -0.061481 0.049027 0.033186 0.066073 -0.079732 -0.039656 -0.18729 -0.15285 0.0295 0.0062062 0.1078 -0.12727 -0.054895 0.0026126 -0.018387 -0.054355 0.10213 -0.023929 0.062262 -0.013017 0.086495 -0.038697 0.072704 -0.0093258 0.099648 0.064269 0.04655 0.017399 0.07079 -0.00074408 -0.13987 -0.16697 -0.014515 0.067258 -0.0191 -0.10154 0.0015161 0.070444 -0.081747 0.0077294 0.066122 -0.0095202 -0.043819 0.012244 0.0045081 0.057498 -0.023672 -0.017419 0.0091327 -0.060652 0.040578 -0.023434 -0.068814 -0.036311 0.070433 0.13971 -0.056656 -0.069045 0.044444 -0.052924 -0.0068208 -0.039056 -0.054732 0.00041358 -0.14572 0.039994 -0.031242 0.038521 0.088514 -0.073857 -0.034215 -0.079239 0.053315 0.10377 -0.098354 -0.090339 -0.064451 -0.044315 -0.15896 -0.018526 -0.0041536 -0.061511 -0.018417 -0.052337 -0.068329 0.014559 -0.032517 -0.020191 0.08833 0.050424 0.044518 -0.0271 0.028852 0.030717 0.028294 -0.012447 0.083793 0.0096255 0.067858 -0.0026706 -0.073671 -0.039976 -0.090847 0.041369 -0.038422 -0.052507 -0.019572 -0.084885 -0.13029 -0.064233 0.063051 -0.034084 -0.0088514 0.16421 0.024951 -0.053876 0.065961 -0.02047 -0.042713 -0.08044 -0.012871 0.029441 0.14107 0.0035039 -0.068615 -0.056342 0.068758 -0.038758 0.071841 0.01428 -0.024571 -0.11349 -0.06673 -0.016064 -0.030072 -0.14481 0.081318 -0.035428 0.002759 -0.040799 0.018742 -0.018323 -0.047376 -0.0085268 -0.036845 0.045863 -0.034282 0.034181 -0.0009252 0.038134 0.16948 0.069381 0.076077 0.18578 0.011515 0.033088 0.037288 0.0030272 0.11928 0.056939 0.0034798 0.078871 0.090681 0.00033545 -0.071616 0.10938 0.035511 -0.057702 0.12442 0.068336 -0.026392 0.058613 0.016823 0.10486 0.13748 -0.014508 0.049994 0.046518 0.078081 0.011105 -0.033199 -0.071462 -0.12505 -0.12424 -0.1046 0.038364 -0.035906 0.031763 0.0097001 -0.00061937 0.08712 -0.11639 -0.084228 -0.18887 0.040116 0.024544 -0.12712 0.01049 -0.020359 -0.027967 -0.053158 -0.057351 -0.17794 -0.0077449 0.0061185 -0.11832 -0.05099 0.016451 0.11544 -0.039382 0.058778 -0.0085371 0.082076 0.00085751 -0.0028038 0.027512 0.029948 0.062695 0.073372 0.075446 -0.053926 0.052728 -0.10022 0.10499 -0.0043926 -0.052881 -0.11259 -0.048569 0.086454 -0.012637 0.063381 0.15096 -0.14962 -0.023715 0.028524 0.019747 0.052369 -0.0023016 0.21438 -0.046596 0.03062 0.012603 0.044414 0.022475 -0.082357 -0.08477 0.18855 -0.021543 -0.10002 0.0046678 -0.12427 -0.0049478 -0.13406 -0.0085779 -0.18457 -0.036628 -0.052768 0.010443 -0.1499 0.12302 -0.0029367 0.013715 0.14518 -0.077995 0.090912 -0.0097956 0.026936 -0.016098 -0.049863 -0.06618 -0.096036 -0.11246 0.052396 -0.086065 0.016752 0.093204 -0.059482 0.065373 0.0035724 -0.080814 0.11346 0.053029 -0.14226 -0.070019 0.034969 0.1338 0.038051 0.081998 -0.18152 -0.11049 -0.14266 -0.024266 -0.025488 0.2406 0.067986 0.16821 -0.040987 -0.089251 0.14302 0.10233 0.032802 -0.0074675 0.16295 -0.034188 -0.046896 -0.055501 0.056528 -0.023036 0.12297 -0.025655 -0.11328 -0.15575 -0.025027 0.081424 0.11987 0.023195 -0.015418 0.017791 -0.1124 0.25473 0.022717 0.14756 0.041311 -0.030201 0.1295 -0.056132 0.028839 -0.023096 0.12624 0.02932 0.16597 -0.03865 0.014996 0.059278 -0.18989 -0.0058697 0.012201 0.17704 -0.0026088 -0.05581 0.055742 0.028229 0.024996 -0.042203 -0.14071 0.233 -0.03793 0.17602 0.072482 0.0032026 0.074424 0.032507 -0.13365 -0.018853 -0.069844 0.030027 0.017219 -0.051966 -0.0086953 -0.024052 0.022714 -0.17397 0.06007 -0.11629 -0.085175 0.068233 0.31458 -0.1783 -0.10954 0.18947 -0.028066 0.01554 0.11659 -0.07359 -0.17038 -0.10512 0.03233 0.13459 -0.097891 -0.11767 -0.046837 0.079683 0.051739 -0.048377 -0.042198 -0.12346 0.044904 0.022789 0.046854 -0.021998 -0.041604 0.052133 -0.012893 0.039334 0.12854 0.17154 0.15312 -0.056945 -0.0085027 0.098389 0.020616 0.038165 0.11529 0.061828 -0.031417 0.080256 0.070816 -0.0035114 0.16038 -0.016362 0.056608 -0.022453 -0.063502 -0.061296 0.063798 -0.063393 -0.078008 -0.10129 0.066104 -0.076195 0.038008 -0.032318 0.0058821 0.13682 0.066487 -0.028654 0.20245 -0.15784 0.10734 -0.064189 0.063234 -0.035644 0.11771 -0.15007 0.010669 0.14397 -0.09407 -0.26243 -0.062077 -0.031345 -0.030693 0.038725 0.024561 0.0063431 0.15842 -0.064432 0.06623 -0.1309 0.17172 -0.027653 -0.1289 0.094078 -0.080453 0.09378 0.10684 -0.014025 -0.030072 -0.13136 -0.028591 -0.033271 0.13792 0.22239 -0.15555 0.02843 -0.15059 0.014141 -0.098409 -0.10782 -0.023882 0.090784 -0.031276 0.026115 0.080214 0.10093 -0.024195 0.2087 -0.22377 -0.11536 0.13976 -0.12698 -0.048112 0.08736 0.031327 0.010504 -0.13549 -0.24256 0.015318 0.19021 -0.11554 0.042042 -0.10776 0.064983 0.041223 -0.026862 -0.021303 0.0037354 -0.01979 -0.15245 0.052434 0.081197 -0.0013751 -0.18101 0.028217 0.02642 -0.082644 -0.068341 0.069464 0.062717 -0.1168 0.10598 -0.14309 -0.060883 0.18797 -0.11848 0.094431 -0.077424 0.077693 -0.043542 -0.13289 -0.0529 0.021393 0.022536 0.074686 0.13219 -0.048315 0.094229 0.021821 -0.097511 0.052635 -0.15099 -0.16686 0.0097502 -0.025356 
and -0.10987 0.042588 0.043934 -0.19179 -0.093467 -0.078077 -0.25172 0.061953 -0.033258 -0.17591 0.074897 0.034826 0.043232 -0.076819 0.06025 0.1166 0.031092 0.072866 -0.018863 0.053286 0.074063 -0.052254 0.023172 -0.020355 -0.064231 -0.087154 0.19858 0.15705 0.058915 0.082646 0.088343 0.001928 -0.022374 -0.060941 0.075975 -0.01508 0.0025053 0.11333 -0.20077 -0.052488 -0.028148 0.0566 -0.011059 -0.12696 -0.18301 0.039382 -0.10472 0.029077 0.17182 -0.045147 -0.1299 -0.04551 0.063715 -0.00067804 0.23064 0.085537 -0.0095832 0.11289 -0.10038 0.14972 -0.022412 -0.035566 -0.09579 -0.32224 -0.12638 -0.026964 -0.049135 -0.16065 0.048379 0.020309 -0.0028544 0.17101 0.079309 -0.021458 -0.05754 0.11004 0.042297 -0.02423 0.0051431 0.043006 0.10522 -0.16278 -0.062898 -0.011458 -0.088264 -0.046059 -0.0050765 0.019259 0.077551 0.17851 0.00078393 0.057009 -0.10134 0.082509 0.024424 -0.020349 0.0063836 -0.074846 -0.033204 0.071566 0.070563 0.077305 -0.11666 -0.14607 -0.026401 -0.14419 0.0018657 0.013987 -0.20819 -0.067653 -0.021857 0.096258 0.12687 0.15563 -0.16346 0.0080472 -0.085247 -0.066688 -0.040776 0.049039 -0.10124 0.021239 0.0045217 0.14386 -0.010209 0.095266 -0.073271 -0.15188 0.0083783 0.018898 0.074637 -0.084705 -0.068602 -0.15579 -0.036286 0.067009 0.091027 -0.042515 -0.11216 0.015916 0.088769 -0.11669 0.19756 0.10907 0.014204 -0.1663 -0.093698 0.067385 0.04798 -0.015124 -0.1486 0.043797 0.066143 -0.074312 -0.055243 0.052568 -0.035694 0.13787 -0.025099 0.0012775 -0.2035 0.012108 0.089321 0.025151 0.042183 0.04742 0.10119 -0.037497 0.040677 -0.072261 -0.010243 -0.053865 0.020152 0.050048 0.040266 -0.046233 0.066138 0.13699 -0.04476 -0.079841 0.088382 -0.11559 -0.056551 0.012372 -0.0026369 0.0060642 0.11876 -0.065362 0.067394 -0.0072919 0.033177 0.058891 0.027718 0.1615 -0.029271 0.057325 -0.012086 0.22976 -0.13198 0.053962 -0.16358 0.047274 -0.13334 -0.038954 0.079296 -0.049135 -0.036663 -0.037733 0.0008611 0.11527 -0.064081 0.12392 0.0047937 -0.1699 0.10222 0.082345 -0.022475 -0.013018 -0.036249 -0.082645 -0.042574 0.081377 0.063998 0.036846 0.11892 0.09662 0.20603 0.0094644 0.08933 0.049901 0.089299 0.019675 0.033166 0.071446 -0.041208 0.099107 0.12596 0.039988 0.00025512 0.019357 0.061255 -0.027786 0.038736 0.04719 0.05235 0.07636 0.057369 -0.018951 -0.14065 -0.0060545 -0.079746 -0.044912 -0.021676 0.080889 0.080285 -0.029271 -0.1808 0.15939 -0.08958 -0.038127 -0.042344 0.1006 0.041183 -0.14976 0.019801 0.034139 -0.011003 0.023528 -0.18291 -0.070855 -0.094449 -0.069025 -0.019445 -0.11323 -0.14298 -0.079328 0.15924 0.14466 -0.058694 -0.011385 0.18102 -0.084988 -0.029016 -0.052069 0.044515 0.015641 -0.055496 -0.082666 0.10319 -0.059697 0.10962 0.02914 -0.084516 -0.046758 0.047601 -0.072408 0.030537 0.037083 -0.016039 -0.020199 -0.11338 -0.010924 -0.040692 0.015377 0.022361 0.19364 -0.026575 0.064675 -0.011302 -0.11138 0.092058 -0.11998 -0.064627 0.0030133 -0.014862 0.017142 0.012306 0.099595 -0.013048 -0.17153 -0.06798 -0.05558 -0.024631 -0.00079258 -0.0062961 -0.17343 -0.017986 0.12124 -0.054476 0.11666 0.18024 0.27507 0.0091476 0.059164 -0.033474 0.1371 -0.11391 0.041438 0.17222 0.18212 -0.026254 -0.026572 0.081549 0.013662 0.068748 0.17995 -0.0037797 0.020015 -0.062807 0.011497 -0.037103 0.17522 0.20781 -0.0016391 -0.019583 -0.0035276 -0.033892 -0.097387 -0.08847 -0.019003 0.18948 -0.083608 0.055894 0.036899 -0.017155 0.11698 0.076269 0.045768 -0.094308 0.095553 -0.12563 -0.1041 -0.083642 -0.22616 -0.17197 -0.0066798 -0.025825 0.063794 -0.031395 0.040492 -0.10169 0.11091 -0.016727 -0.14157 0.0041823 -0.14204 0.16761 0.048469 0.18843 0.10497 -0.11703 0.059903 0.17013 0.038039 -0.087071 0.064072 -0.063797 0.11386 -0.02641 -0.083318 0.11873 0.0078738 -0.11415 -0.0079803 0.033861 -0.19625 0.027273 0.10123 -0.016794 0.033843 -0.025232 -0.12887 0.10949 -0.016991 -0.07246 -0.0012239 0.071118 -0.016995 0.034439 -0.054257 -0.22162 -0.044765 -0.043362 -0.02231 -0.00047856 -0.036554 -0.00011043 0.16292 -0.090944 -0.030293 0.13376 0.0070534 0.040897 0.12761 -0.080915 0.059973 0.17709 -0.027026 0.053262 0.066562 -0.19058 -0.13769 -0.066568 0.003243 0.062018 0.0023734 0.012789 -0.21807 -0.078702 0.20862 0.019589 -0.034874 -0.20344 0.04152 -0.035608 0.075686 -0.10744 -0.15409 0.1598 -0.090417 0.15143 0.10889 -0.059391 0.14583 -0.038187 -0.048516 0.13161 0.010518 0.0077233 0.24384 -0.1707 0.07287 0.025312 0.099538 0.058332 -0.011995 -0.082847 0.088973 -0.041843 -0.049402 -0.0012331 0.16184 -0.066123 -0.15673 -0.032264 0.010622 0.023335 -0.1007 -0.0334 0.018734 0.18387 0.14906 -0.085187 -0.086939 -0.011293 -0.040678 -0.019793 0.11652 -0.14277 -0.045058 -0.0065273 -0.011906 -0.035276 0.053915 -0.06564 -0.092611 0.040744 0.0046786 -0.088747 -0.086911 -0.016255 -0.012306 -0.12091 0.057434 -0.092635 0.11371 -9.8869e-05 -0.099754 -0.0077832 -0.12848 0.026425 -0.050858 0.038643 0.03025 -0.080082 -0.031973 0.062747 0.15831 0.026911 0.045885 -8.9448e-05 -0.0833 0.0013201 -0.022869 -0.0051965 0.053151 0.03295 0.01937 0.090972 0.11769 -0.029189 -0.054995 0.076576 -0.16603 -0.0044308 0.11323 -0.03624 -0.037218 0.020079 -0.022553 0.018674 -0.022103 -0.14361 0.027472 -0.075532 0.098765 -0.044114 0.04745 0.061462 0.10989 -0.022104 -0.02716 -0.0046085 -0.10431 -0.04365 -0.063939 -0.09008 0.043265 -0.066298 0.075692 0.010615 0.0020813 -0.021003 0.02797 0.076706 -0.082456 0.029429 -0.072794 -0.049572 0.11011 -0.19356 0.0058818 0.095952 0.105 -0.087037 -0.015987 -0.10094 0.048381 -0.15256 0.010229 0.011488 -0.081809 0.094216 0.06524 -0.044485 0.11074 0.0010732 -0.15304 -0.013425 0.03512 
testing 0.023577 -0.13602 0.050995 -0.038757 -0.047821 0.019668 -0.039703 0.10684 -0.084664 -0.040125 -0.023859 -0.17254 -0.0014355 -0.029822 -0.10698 -0.026625 0.12519 0.058572 0.063071 -0.029407 -0.16559 0.033764 -0.034884 0.0023658 0.00012976 -0.060499 -0.048205 -0.039529 0.20013 -0.049311 -0.004805 0.037389 -0.095241 -0.011196 0.053632 0.028337 0.080481 -0.022662 -0.080106 -0.069168 -0.0051554 -0.056613 -0.034068 -0.17236 -0.06926 0.017363 -0.2245 0.039775 -0.0049955 0.037066 -0.071098 0.11806 0.068882 -0.025714 -0.10899 -0.041711 0.16931 0.028872 -0.077884 0.077733 -0.027973 -0.10539 0.014846 -0.090904 0.060968 -0.12397 -0.080073 -0.099292 -0.056593 -0.053525 -0.10372 -0.054852 -0.023764 -0.091805 -0.057591 -0.0030281 0.11946 0.070318 -0.030971 -0.11868 0.015525 -0.099415 -0.1587 0.078065 0.011037 0.0020669 0.0046269 0.0080101 0.044909 0.00012415 0.04928 0.21826 0.090676 0.063907 0.032966 0.13234 -0.17122 -0.072889 -0.091555 -0.12157 0.10567 -0.13417 -0.1226 0.012021 -0.0052041 -0.024433 0.067942 0.2032 -0.047303 -0.1512 -0.072327 0.061818 0.089981 -0.022024 -0.14829 0.038439 -0.069143 0.013031 -0.028896 -0.054995 -0.048467 -0.094767 0.054689 0.017005 -0.056235 0.042001 0.0027191 -0.031157 -0.096621 0.036177 -0.2273 -0.25329 -0.015383 -0.13256 0.055546 -0.053138 0.028962 -0.035149 0.023864 0.15887 0.064216 -0.038751 -0.015088 -0.016837 -0.081026 -0.0047071 -0.073878 0.072775 -0.06333 0.04659 -0.089261 0.0077959 -0.09259 -0.0062389 -0.033548 0.15865 0.0035649 -0.0071684 0.04561 0.057746 0.043138 -0.060102 -0.0752 0.11414 0.02754 -0.049407 0.068718 -0.10732 0.0035352 -0.04719 0.1826 0.028268 -0.0551 -0.030216 -0.12466 -0.055977 -0.022332 -0.064607 0.031517 -0.033006 0.033271 0.090363 -0.091332 0.019027 -0.015569 -0.00054162 -0.084171 0.034079 0.18195 0.063831 0.082112 -0.019276 -0.057319 -0.037253 -0.0024749 0.081403 0.10071 0.055521 -0.1518 0.082805 0.16194 0.022373 0.032768 0.094725 0.016298 -0.0073542 0.077139 0.045205 0.010469 0.023134 0.0078297 -0.045505 0.087264 0.027806 0.050595 0.015742 0.012665 0.19263 -0.082702 0.079512 -0.00048379 0.15484 -0.0035295 0.1091 -0.014216 -0.028468 0.12137 -0.0023216 0.058833 0.018912 0.12127 -0.041161 0.02611 0.10655 0.068115 0.010224 0.088361 -0.030807 -0.014715 0.15735 0.017289 0.01698 -0.0043983 -0.0079592 0.13101 -0.0091068 -0.079623 0.027353 0.15813 -0.20944 -0.12433 -0.097833 -0.069892 0.058724 0.0011332 0.065283 -0.01701 0.068869 -0.049997 -0.078141 -0.22206 -0.012454 0.071598 -0.10529 0.004007 -0.0024601 -0.059461 0.049028 -0.046415 -0.063191 -0.018611 -0.073766 -0.08428 0.048385 -0.089871 0.039706 -0.077795 -0.093313 0.054148 -0.059295 0.14373 0.024211 0.10342 -0.025306 -0.095494 -0.037572 -0.060933 -0.016144 0.019252 -0.10978 -0.0001499 -0.021042 0.022472 -0.00042794 -0.063388 0.16465 -0.05091 -0.056559 0.14051 -0.015537 -0.035747 -0.012111 0.0109 0.17459 -0.11459 0.15348 -0.091812 0.048916 0.077994 0.11918 0.016951 -0.085448 0.066179 0.13696 -0.11122 -0.11748 0.07227 -0.090379 0.096692 -0.08861 -0.005218 -0.063026 0.028153 -0.073587 -0.075326 -0.032835 0.1002 -0.016787 0.054897 0.011065 -0.045102 0.057977 -0.033521 0.023353 -0.13398 0.021008 -0.12474 -0.014046 -0.034534 -0.11031 -0.10028 -0.049604 0.062596 -0.12023 0.1048 0.17669 -0.12958 0.048419 0.010201 -0.01572 -0.022773 -0.017278 0.12393 -0.041417 -0.0071055 -0.13407 -0.11771 -0.10406 -0.00269 0.017074 0.096579 0.084408 0.066956 0.0089233 0.017179 0.019723 0.12297 -0.030236 -0.025415 0.14808 -0.093039 -0.096888 -0.09898 -0.023212 -0.072364 0.13246 -0.071469 -0.17205 -0.16214 0.050336 0.057573 0.025083 0.026205 -0.027884 -0.051299 -0.035435 0.1289 0.057567 0.1166 0.05861 -0.034119 0.098716 -0.018311 0.089125 -0.083193 0.042883 0.032739 0.11475 0.11886 0.0068425 -0.047048 -0.080601 -0.04893 -0.0087659 0.02461 0.086501 0.014305 -0.0094719 -0.042513 -0.0055158 0.012762 -0.099654 0.13548 -0.0031699 0.065175 0.10846 0.093731 0.13007 -0.073512 -0.10439 -0.082406 -0.031271 0.10649 0.10564 0.0089074 0.029568 0.081429 0.14733 -0.055888 0.12114 -0.033807 -0.15049 0.10316 0.19548 -0.035896 -0.030263 0.013697 -0.002048 0.034763 -0.0026468 0.012604 -0.056797 -0.11372 0.062412 0.041476 -0.12827 -0.042092 -0.098858 -0.066632 -0.031431 -0.031205 -0.055008 -0.085515 0.11016 -0.021739 0.024734 -0.044174 -0.1267 -0.01185 0.023923 0.15227 0.059199 0.04522 0.022599 0.0017144 0.097733 -0.022277 0.060909 0.11364 0.090008 0.20914 -0.0021945 -0.01603 0.0058322 -0.036714 -0.0095961 -0.046043 0.03536 -0.076368 0.034439 -0.012907 0.1153 -0.035275 -0.10141 -0.11866 -0.076731 -0.016822 0.025089 0.02078 0.062409 0.066591 -0.0020703 0.18705 0.029424 -0.14621 0.001732 -0.036408 -0.019842 -0.057732 0.045867 -0.06222 0.017796 0.053011 -0.072366 -0.23959 -0.15807 0.0094922 0.041731 0.044263 -0.0087638 -0.072546 0.10594 0.082055 -0.0058461 -0.0045801 0.052198 0.026431 0.0048995 0.10227 -0.03456 0.12719 0.057087 0.10246 -0.071178 -0.075212 0.022284 -0.084086 0.16019 0.13853 -0.093453 0.061364 -0.032975 0.075217 -0.0042196 0.042755 0.010514 -0.078022 0.047662 0.039719 0.088226 -0.014196 0.049645 0.043098 -0.010737 -0.0088026 0.10298 -0.13557 -0.061657 -0.0012003 0.13067 0.011189 -0.12166 -0.13838 0.02792 0.16125 -0.087754 -0.018197 -0.12929 0.024357 0.051446 0.018124 -0.09016 -0.014357 0.051542 -0.11431 0.0075974 0.0797 0.029507 -0.13656 -0.10455 -0.024372 0.050439 0.074241 -0.052645 0.11882 -0.095208 0.089445 -0.045864 -0.12946 0.076496 0.030261 0.062537 -0.08358 0.034148 -0.031872 -0.12203 -0.095973 -0.023065 -0.0046137 0.10924 0.022783 -0.022769 0.043781 0.032875 -0.12881 0.091993 0.048732 -0.03478 0.10205 -0.029258 
for -0.050109 0.0003658 0.015655 -0.14746 -0.023747 -0.14961 -0.2251 0.080318 0.062691 0.051358 0.052287 0.072098 0.12918 0.0060273 0.091142 0.051104 0.1531 0.25697 0.18332 -0.0051052 -0.09578 0.032356 0.045015 0.012332 0.033864 -0.12666 0.12221 0.10773 0.028387 -0.0027811 -0.016119 -0.0075103 0.0048726 -0.0078022 0.090921 -0.078291 -0.016539 0.094199 -0.10464 -0.064209 -0.036416 0.030518 -0.015509 -0.11157 -0.16341 0.080755 -0.041903 -0.058133 0.15043 0.016963 -0.19986 0.1127 0.21051 0.056231 0.21063 0.029195 0.10842 0.067074 -0.10011 0.07183 0.045642 -0.05212 -0.085172 -0.22803 -0.066237 -0.052754 -0.25147 -0.11657 -0.016419 -0.11175 0.087587 0.12995 -0.019243 0.13978 -0.015329 0.072119 0.15833 0.046138 0.19525 0.0032483 -0.019751 -0.099059 -0.01331 -0.019981 -0.11218 -0.22587 -0.0082122 0.045315 -0.041143 0.0067105 -0.042764 0.10746 -0.06966 0.10448 0.035372 0.016644 -0.14174 -0.049552 0.072611 -0.028472 0.1002 -0.11786 -0.211 -0.23181 -0.18137 0.035814 0.15624 0.13664 -0.11842 -0.1624 -0.14814 0.040848 0.1254 0.12645 0.008132 -0.00051467 -0.070827 -0.13635 0.0062284 -0.12095 -0.039099 0.045836 -0.044954 0.13068 0.11674 0.039397 0.069534 -0.17005 0.0060241 0.062902 -0.065735 -0.1311 0.016409 -0.05464 0.062371 0.020875 -0.0051989 0.035305 -0.08515 0.10322 0.1624 0.038478 0.049686 0.10176 0.042617 0.019396 0.01267 0.079973 -0.060266 0.021837 -0.042475 0.14532 0.012815 -0.096321 0.004502 0.06275 -0.031394 0.12472 0.091145 -0.017191 -0.14319 0.019709 0.021726 0.037931 0.070983 -0.035285 0.20859 -0.050651 -0.064539 -0.007901 0.068812 0.088681 -0.021161 0.0073086 0.010014 -0.02467 0.024245 0.12933 -0.034029 -0.056547 -0.13309 0.0098426 -0.022141 0.036908 0.044074 -0.036563 0.04055 0.01771 0.076734 0.026884 -0.004163 -0.014721 0.10299 -0.022785 0.036333 0.08022 0.09746 0.10534 0.072188 0.045169 0.019352 0.030224 -0.083028 -0.0073413 0.074493 -0.0072935 0.0031121 0.0069766 -0.10752 0.056424 -0.013526 0.15236 0.058078 -0.13392 0.024163 0.19303 -0.10318 0.056658 -0.0008394 -0.14118 -0.074078 0.12945 -0.1198 0.16007 -0.0055399 -0.039312 0.26044 -0.016053 0.087693 0.057242 0.028246 0.038604 -0.096091 -0.013001 -0.043164 -0.041914 -0.012765 0.13119 -0.014895 0.03721 -0.025185 -0.083339 -0.015048 -0.015211 -0.055543 0.080763 -0.024845 0.0066943 -0.035472 -0.10073 -0.015226 -0.04489 0.0002999 -0.053231 0.011502 -0.0083445 -0.080959 0.00065199 -8.0202e-05 -0.076329 -0.082196 0.0044578 0.040823 -0.04951 -0.01647 -0.020895 -0.080948 0.073043 -0.14754 -0.086247 0.085922 -0.10752 0.10794 0.034722 -0.12906 -0.16877 -0.13693 -0.14511 0.024547 -0.12088 0.15779 -0.12651 -0.072581 0.0010458 -0.064612 -0.03317 -0.03574 -0.11131 -0.042203 0.021413 -0.052679 -0.020025 -0.02591 0.0012016 -0.09614 0.12311 0.061504 -0.046645 0.039927 0.014083 -0.067818 -0.069993 0.011098 0.18284 -0.072271 0.10264 -0.042632 0.043481 0.090555 -0.033326 -0.010059 -0.042837 0.015589 0.030001 -0.090056 0.0018405 -0.035411 0.0028224 0.0027158 -0.098029 0.042278 0.018013 -0.090874 -0.032639 -0.046573 -0.043219 -0.027401 0.0181 -0.0057572 0.1529 0.12258 0.12665 0.0020347 0.072852 -0.073531 -0.033076 -0.11527 0.11888 0.063587 0.027838 -0.11388 -0.070492 0.12131 -0.082745 0.15793 0.20103 -0.082449 -0.075445 -0.050565 0.10921 -0.0022445 -0.027322 0.05227 -0.034406 0.16602 0.032393 -0.082708 -0.050032 -0.073451 -0.0028729 0.022496 0.064044 0.098321 0.019448 0.0729 0.16097 0.10853 -0.049396 -0.0098559 0.2481 0.014665 -0.038715 -0.12587 0.014857 -0.11744 0.04524 -0.18554 0.046024 -0.037498 0.12528 -0.064378 0.0092419 0.042921 -0.10824 -0.045093 -0.12371 0.053184 -0.097033 -3.8771e-05 0.15723 -0.11756 0.063545 0.042174 0.065945 -0.19809 -0.028467 0.032557 0.024503 0.059567 0.051499 0.096513 0.056703 -0.18011 0.014966 -0.10024 -0.17278 0.031634 0.024898 0.046041 0.096133 -0.069718 -0.1623 0.09465 0.028622 0.035047 -0.0058493 0.24377 0.21117 0.019614 -0.11303 -0.17528 -0.11278 0.024728 -0.032258 -0.12081 0.029878 0.097759 0.14728 0.0018971 0.010133 -0.060263 -0.026383 0.046483 0.05173 0.034833 -0.0030223 0.10516 0.053935 0.04464 0.10006 -0.057061 -0.0068176 0.084103 0.078132 0.16502 0.056298 0.0089016 -0.28962 -0.03051 -0.021129 0.03802 -0.016004 -0.18068 0.034079 -0.054707 0.11403 -0.024076 -0.16243 0.11767 0.0052549 0.21073 0.1367 -0.041051 0.19792 0.011968 -0.04756 0.12355 0.14908 0.053662 0.20647 -0.012167 -0.048443 0.13357 0.10724 0.061724 -0.014036 -0.058975 0.031331 -0.14901 -0.01208 -0.024254 0.056412 -0.14197 -0.067141 -0.13788 -0.13473 0.09623 -0.10665 0.16063 0.10186 0.14946 0.092588 -0.0090273 -0.13624 0.05826 -0.049284 -0.025176 0.16824 -0.064685 0.018698 -0.046293 0.055561 -0.16616 0.031234 -0.07541 -0.061288 -0.045546 0.062636 -0.11707 0.0041549 -0.088195 0.12356 -0.020603 0.1601 -0.056156 0.12029 0.041167 -0.03821 0.11312 -0.0044191 0.17942 0.12081 0.047542 -0.035879 0.012104 0.062618 -0.075882 0.24216 0.063364 0.078304 -0.072398 -0.15809 -0.016915 -0.045138 0.098792 0.045327 -0.016347 0.14024 0.2197 0.057002 -0.010548 -0.030356 -0.035407 0.058151 -0.045836 0.081248 -0.12562 -0.055421 -0.060298 0.1148 0.0034357 0.053687 -0.20352 0.11567 0.10412 0.1355 -0.1414 -0.017994 -0.024636 0.21633 -0.02871 -0.037943 -0.0075391 -0.012366 -0.074363 -0.083353 0.036257 -0.010079 -0.11454 -0.06294 -0.17258 -0.031625 0.1013 -0.0011531 0.17688 -0.0030025 0.028561 0.061988 -0.1483 0.076838 -0.044677 0.061569 -0.061001 -0.00069078 -0.056216 -0.017577 -0.097917 -0.02306 -0.059524 0.04499 -0.044076 -0.026222 0.14474 0.16527 -0.004862 0.146 0.0072499 -0.073833 0.042382 0.061449 
in -0.14179 -0.01155 0.11465 -0.2466 0.070864 -0.14503 -0.17397 0.10746 -0.0080928 0.09134 -0.0079071 -0.18421 -0.1283 0.12005 -0.022371 -0.039602 0.15929 0.083919 0.086654 -0.010996 -0.12257 -0.034061 0.065029 0.073634 0.051081 -0.033591 0.0078287 0.043074 0.11585 0.036686 0.014536 0.044281 -0.0056758 0.083158 -0.092973 0.093351 -0.042068 -0.024587 -0.13308 0.0052839 -0.028921 0.064938 -0.079316 -0.082516 -0.12814 -0.1456 -0.11005 -0.22234 -0.0076237 -0.06533 -0.14567 0.0080756 -0.0072257 -0.017558 -0.0098775 -0.03252 0.07442 -0.026321 -0.0092874 -0.022238 0.018211 -0.12882 0.003887 -0.19656 -0.060353 -0.12234 -0.10003 -0.12893 -0.016146 -0.028814 -0.053758 0.017098 -0.015764 -0.038216 -0.063089 0.086954 0.18128 0.010875 0.0067048 0.074817 0.00033849 -0.15396 -0.012849 0.034552 0.11633 -0.057085 0.096641 -0.056938 -0.016467 0.03167 -0.069595 0.11091 0.060218 0.031238 0.069583 0.061833 -0.029933 -0.10079 -0.10035 -0.070742 0.078888 -0.080343 -0.088709 -0.019573 -0.084638 -0.05628 0.19833 0.17777 0.044904 -0.17205 -0.07714 0.080326 -0.044855 -0.097848 0.096105 -0.051247 -0.14775 0.080352 0.0093572 0.0090435 0.010534 0.11196 0.10648 0.17221 -0.0088088 -0.0085487 0.074235 -0.002256 0.07304 -0.021849 -0.025313 -0.063438 0.0233 -0.061984 0.0074599 -0.053031 -0.015091 -0.064297 -0.07292 0.083835 0.15412 -0.1402 -0.014678 0.018452 -0.032889 0.016677 0.0080335 -0.11789 -0.071189 0.062573 -0.049098 0.10357 -0.060592 0.029473 0.019834 0.063691 0.058649 0.0020112 0.058998 0.086653 0.057129 -0.05323 0.031408 0.050881 0.047181 -0.094965 0.017527 0.027125 0.060516 0.051441 0.08112 0.063293 -0.079517 -0.012884 -0.051452 -0.13906 0.075112 0.16677 0.097717 -0.0049415 -0.11132 -0.052841 -0.047657 -0.052022 0.043172 -0.0045289 0.015714 0.022467 0.12764 0.013863 0.00034077 -0.0044222 -0.0069073 -0.044781 -0.1268 0.010802 0.1042 0.027911 0.04338 0.065469 -0.16033 0.06323 0.025913 0.16251 -0.01674 0.059878 0.032064 0.028342 0.051829 -0.015665 0.034435 0.066027 -0.0042704 0.061674 0.036785 0.011096 0.017097 0.10301 0.075338 -0.025923 0.11517 0.18059 0.0038104 0.084806 0.022474 -0.057709 0.18465 0.03598 -0.006399 0.038511 -0.056353 -0.049412 -0.036284 -0.033493 0.1534 0.014096 -0.011442 -0.040127 -0.0040421 0.070237 0.10649 0.067763 -0.2328 -0.00069368 0.040782 -0.065704 0.13635 0.026099 0.074137 -0.14137 -0.043022 -0.10286 0.019704 -0.043964 -0.017409 0.14696 -0.05279 0.077809 -0.014526 -0.028299 -0.19987 0.21314 0.032689 0.025932 0.032882 0.047333 -0.045661 0.0458 0.038934 -0.016687 -0.021319 -0.10366 0.10518 -0.038349 -0.11298 -0.038013 -0.026095 -0.13944 0.087852 -0.039587 0.11504 -0.0049093 -0.05061 0.090663 -0.0073416 -0.10929 -0.021797 0.10027 -0.11929 -0.076613 -0.071928 -0.18889 0.059514 -0.01995 -0.03461 0.038279 0.041349 0.043742 -0.018236 0.086097 0.065787 0.037561 0.058468 0.09839 0.013992 0.087681 -0.054447 0.038108 0.11199 0.096745 -0.025253 -0.10851 0.01315 -0.0065495 -0.06571 -0.17831 0.0030346 -0.010588 0.10705 -0.10674 -0.059647 -0.066492 -0.029861 -0.23106 0.051215 0.075574 -0.027916 0.00039958 -0.029984 0.18908 0.08071 0.11656 -0.0481 -0.0053989 -0.041234 -0.018197 0.038136 -0.055767 0.037189 0.061187 -0.0065744 -0.12398 0.16664 -0.15922 0.12448 0.047411 0.012721 0.055375 0.053328 -0.058922 -0.077013 -0.042437 0.15719 0.08474 -0.14165 0.043871 -0.14586 -0.12715 -0.0024835 0.0042276 0.027288 0.0096273 0.067703 -0.020726 0.014435 0.15333 0.033841 -0.16275 0.013151 0.14165 -0.17295 -0.11409 -0.053253 -0.062843 -0.035428 0.10548 -0.087798 -0.14422 0.075696 -0.021229 0.19074 -0.090734 0.21452 0.068663 -0.16919 -0.021203 -0.0043251 -0.0096743 0.22891 0.088907 0.012344 0.16078 -0.072421 -0.029387 -0.0062572 -0.031559 -0.12008 -0.01994 -0.057733 -0.055099 0.042427 0.044711 0.05728 -0.05916 -0.0016386 -0.019164 0.0084057 -0.045187 0.04976 0.10869 -0.068867 -0.036337 0.12009 0.041249 -0.0251 0.024429 -0.066306 0.016309 0.041242 -0.21143 -0.040202 -0.096995 0.055069 0.12721 -0.10075 0.13683 -0.043359 0.069166 -0.067547 0.038729 -0.01287 -0.10072 0.087265 0.045602 -0.075652 -0.029013 0.07967 0.063331 0.0067571 0.083982 -0.097751 0.087405 -0.1029 0.015471 -0.02579 0.080621 -0.1894 0.082083 0.077597 0.15033 -0.095044 0.028508 -0.093163 0.064019 0.0065384 0.020276 -0.13189 -0.1849 0.11086 -0.037763 0.1364 0.18017 0.010415 0.1005 -0.0082299 0.04322 0.0091294 -0.028961 0.082295 0.027744 0.15555 0.0033085 0.070072 -0.09941 -0.041557 -0.10594 -0.082094 0.17719 -0.028543 -0.0021831 0.1067 0.073234 -0.092021 -0.047743 -0.12461 -0.19842 0.10108 0.11455 -0.03236 0.046006 0.15622 -0.053282 0.13604 -0.022919 -0.11471 0.012231 0.058256 0.033969 -0.03174 0.044689 0.10489 0.017644 0.023822 0.0024582 0.052893 -0.07178 0.023527 0.15569 -0.13179 -0.095905 -0.022088 0.0032095 -0.063644 0.084276 -0.054558 -0.037074 -0.0060053 0.079398 -0.034777 -0.080529 0.10487 0.020616 -0.028702 0.000724 -0.15799 -0.0082517 -0.11718 0.16062 0.10495 0.005186 0.016366 -0.051716 0.11198 0.0004985 0.00030068 -0.031021 0.077497 0.00099966 0.031112 -0.0746 -0.045137 0.021149 -0.0094072 0.08377 -0.10392 -0.045021 -0.31474 -0.092224 0.10581 0.048607 0.023767 -0.084439 -0.2629 0.10612 0.0019093 -0.051643 0.009829 0.0074555 -0.012149 0.068182 -0.18032 -0.05947 0.028401 0.065961 -0.032163 0.015665 0.054223 0.093487 0.025667 -0.082622 0.098805 -0.079054 -0.031757 0.049509 0.090346 -0.0079918 0.062638 -0.00073866 -0.014799 0.10652 -0.11214 -0.026531 -0.024267 -0.055435 -0.03862 0.034623 -0.0044251 -0.096459 -0.043637 0.097341 0.036256 0.034734 0.07286 -0.0027734 -0.27165 0.040927 0.16999 -0.062172 -0.025237 -0.09549 
a -0.0061818 0.075437 0.012319 -0.16302 0.12466 -0.0094605 -0.078485 -0.028508 -0.1059 -0.031082 0.0093542 0.020698 0.098987 -0.10674 0.024399 0.034353 0.078706 0.02197 0.22323 0.030614 -0.064937 0.10548 -0.03905 -0.041273 0.082406 -0.07876 0.057776 -0.059597 -0.0059124 0.030227 0.048743 -0.084192 -0.036114 0.0080236 -0.049867 -0.13006 0.014503 0.15621 -0.11712 -0.053706 0.15829 -0.040695 -0.04123 -0.18428 0.057707 -0.0047056 -0.067752 0.03334 0.1473 0.0052801 -0.16313 0.086968 0.14646 0.047168 0.12068 -0.14593 0.16731 0.042941 -0.013385 -0.050113 -0.056641 0.0014689 -0.020559 -0.093189 -0.016256 -0.02838 -0.034521 -0.14318 -0.0048144 -0.085387 -0.0068248 0.033581 -0.036294 0.10017 -0.10691 -0.0082316 0.087274 0.18783 -0.047877 -0.03498 -0.02715 0.027093 -0.14299 0.10479 -0.075553 0.19406 0.088156 0.076032 -0.042273 -0.038508 4.1224e-05 0.14426 -0.074371 0.056669 -0.16027 0.087296 -0.11881 0.033232 0.024344 -0.057044 0.038824 -0.050117 -0.064695 -0.049249 -0.081398 -0.023685 0.17736 0.11519 -0.16821 -0.074985 -0.082685 0.017067 0.077477 0.0072419 -0.08384 -0.033042 -0.0036424 -0.074279 -0.035005 0.060498 -0.01118 0.077295 0.044718 0.19468 -0.020724 0.044213 0.033187 -0.033387 -0.055183 -0.035986 -0.079299 -0.14751 0.04326 -0.0046224 0.089844 -0.045064 -0.048382 0.062414 -0.074372 -0.057136 0.034607 -0.043029 -0.019595 0.027154 -0.049391 0.10442 -0.070835 0.057247 -0.098274 -0.058601 -0.074432 0.022642 0.054157 0.0059674 -0.013459 0.16593 -0.11186 -0.049642 0.052621 0.06121 0.00040928 0.017186 0.030164 0.04027 0.050641 0.0079348 0.14395 -0.07935 0.010162 -0.12401 0.033183 -0.0051174 -0.027701 -0.025106 -0.034509 0.039716 0.0049739 0.012373 -0.010643 -0.031442 -0.0056738 0.038555 -0.10923 -0.011462 -0.033687 0.029254 -0.15487 -0.11704 0.0092828 0.0089033 0.11066 0.02816 -0.0037631 -0.12213 -0.083755 0.045567 -0.087032 0.09449 -0.05341 0.055197 0.075865 0.028309 -0.0045278 0.047398 -0.0086697 -0.011271 0.042338 -0.024159 0.0090634 0.070096 0.041726 -0.037055 -0.016208 -0.042335 -0.0090396 0.049455 -0.11074 0.034788 -0.075042 0.053358 -0.064143 0.041798 -0.11815 0.17163 -0.06461 -0.044576 0.052507 -0.051371 0.036443 0.058256 0.057387 -0.065746 -0.016206 0.13279 -0.015676 0.039662 -0.060879 0.033109 -0.11211 0.068418 -0.12274 -0.0553 -0.045875 -0.028325 -0.12711 0.034245 0.0017337 -0.009642 0.021441 -0.082386 -0.12813 -0.082853 -0.061846 -0.088532 0.051608 -0.012447 0.0025891 0.006586 0.060557 -0.041523 -0.19004 -0.047328 -0.015094 -0.063631 0.00889 0.019811 -0.073974 0.097482 -0.011487 -0.037705 -0.086488 0.072622 0.034067 -0.075684 0.046009 0.049162 -0.099395 -0.046117 -0.011106 -0.13446 0.077709 -0.11317 0.085642 -0.026361 0.042612 -0.097363 0.035337 -0.082598 -0.016385 0.035994 0.14272 0.056954 0.052974 -0.043588 -0.1697 0.17129 -0.092778 -0.021352 -0.11395 0.028365 0.0081478 -0.0054844 0.046778 0.04451 -0.17113 0.14766 -0.020991 -0.010741 0.029935 -0.023331 -0.055567 -0.076614 0.095376 0.088788 -0.1027 0.037944 0.14686 -0.092442 0.057036 -0.054401 0.047427 -0.0075203 -0.046893 -0.076486 -0.093619 -0.091016 0.11656 0.034344 -0.034606 -0.044435 0.032839 0.032756 0.013773 -0.059017 -0.062624 0.037363 -0.078102 0.014842 0.037384 -0.034639 -0.0090923 -0.060787 -0.045011 -0.047821 0.053807 0.072414 -0.091578 -0.059252 -0.042868 -0.015173 0.023011 -0.04108 0.016074 -0.11345 0.097567 -0.017635 0.0050459 -0.010699 -0.061367 0.04382 0.012341 0.050716 -0.066771 -0.043386 0.060372 0.09605 0.06574 -0.090152 0.056193 0.081071 -0.02117 -0.05131 -0.081606 -0.029402 0.017239 0.026287 -0.03174 -0.0069986 -0.046164 0.07505 0.012554 0.0063944 -0.033247 0.022725 0.099019 -0.076863 0.11355 0.080864 0.026348 0.021842 -0.058955 0.10214 -0.040743 0.047416 -0.12617 0.022801 -0.015406 0.039954 0.01646 -0.07169 -0.038154 -0.084103 -0.090814 0.004865 0.079609 0.12332 -0.047868 0.0071013 0.045212 0.061937 0.015509 -0.14772 0.1134 0.013552 0.076701 -0.06203 0.096823 0.15328 0.0075354 0.030661 0.02332 -0.052431 0.054379 0.042693 -0.056578 -0.023224 0.017484 0.086 -0.095923 -0.0198 -0.0087751 0.0083984 0.014081 0.044228 0.073682 -0.084757 -0.018763 0.066188 0.015581 0.043608 0.079133 0.005029 -0.16928 -0.014929 -0.0093218 -0.0050098 -0.049332 -0.19528 -0.0044406 -0.08356 0.04308 -0.10767 -0.077023 0.0032672 0.014992 -0.0030715 0.073708 0.021701 -0.0065771 0.015674 0.10373 0.032656 0.15549 0.05042 -0.067505 0.054159 -0.0076278 0.10077 0.023996 0.10386 0.11322 0.031017 0.020764 0.09151 -0.056298 -0.087524 0.043729 0.075288 -0.11326 -0.060866 -0.1147 0.0012096 -0.060962 -0.092725 -0.10063 0.006611 0.12634 -0.058091 -0.0087053 -0.065887 -0.026463 0.11542 0.12459 -0.0040032 0.077308 -0.03755 -0.075986 0.075807 -0.032363 0.034282 -0.12606 0.018925 -0.030921 0.025027 -0.076716 -0.088639 -0.060833 -0.040842 -0.0064686 0.12774 0.08334 0.06792 -0.026363 -0.094839 -0.009731 0.096599 0.04751 0.010893 0.072199 0.054534 0.14598 -0.0054758 0.07329 -0.12625 -0.026751 0.016564 -0.061969 0.15578 0.036596 -0.02392 0.0085975 -0.1151 0.017531 0.027746 0.06552 0.053591 -0.042207 0.021596 -0.0096931 0.12088 0.040576 -0.078471 -0.045836 0.061146 -0.086505 0.037192 -0.16288 0.0057464 -0.13972 0.099183 -0.12498 0.076472 0.0073981 -0.0038349 0.071145 0.042912 -0.081966 -0.060118 -0.077341 -0.022903 0.062357 -0.00025375 0.00090413 0.050078 -0.022788 0.010451 0.079507 -0.024103 0.051074 -0.056632 -0.091603 -0.088165 0.056941 -0.011861 0.017027 -0.039818 0.045607 0.12673 -0.022882 -0.023625 0.13575 -0.089111 -0.063928 -0.042225 0.032338 -0.1069 -0.026483 -0.011306 -0.059877 0.040612 -0.098582 0.022929 -0.014845 0.091378 -0.053637 0.022506 0.14357 0.060816 0.050027 0.061845 
the -0.0033697 0.16843 -0.045802 -0.087275 -0.043324 -0.10708 -0.087413 -0.016012 0.097639 0.13104 -0.010039 -0.013648 0.11256 0.0054974 -0.0044037 0.0088664 0.089312 0.1179 0.15094 0.094269 -0.12869 -0.0040553 -0.0007023 -0.0041489 -0.081475 0.043266 0.090924 0.040202 -0.0013855 0.012407 -0.052294 0.077901 0.090181 0.019284 0.07255 -0.079704 -0.065941 0.176 -0.073878 0.064066 0.00073531 -0.10234 -0.098271 0.020131 -0.031519 0.019702 0.017812 -0.030619 0.14313 0.030399 -0.15988 0.10439 0.095735 0.021213 0.023378 -0.041695 0.06518 -0.05877 -0.072164 -0.051199 -0.057762 0.027677 -0.024273 0.018524 0.099078 -0.033748 -0.065771 -0.12098 0.058369 -0.088587 0.071503 -0.043798 0.0097874 0.057236 -0.10794 0.050158 0.11449 0.10289 0.096428 -0.0065071 -0.068856 -0.056235 -0.070157 0.12578 -0.16897 0.0011997 0.11857 0.15915 -0.052068 -0.053459 -0.023747 0.089307 -0.059687 0.068299 0.013999 0.12602 -0.052305 0.044015 -0.068358 -0.067465 -0.091827 -0.1176 -0.041906 -0.14239 -0.061432 0.047762 0.12447 0.083163 -0.21683 -0.080893 -0.11802 0.13204 0.10882 0.048339 -0.013446 0.049397 -0.17212 -0.097145 0.040133 -0.080701 -0.061812 0.047436 0.091095 0.088952 0.012948 -0.031107 0.007315 -0.013994 0.049607 0.030671 -0.12016 -0.072834 0.0415 0.043196 0.07221 -0.030533 -0.075769 0.0099223 -0.060485 0.014943 0.049952 -0.11294 0.051101 0.055712 0.019999 0.0065654 0.029871 0.086826 -0.18364 -0.016753 -0.061924 0.13793 -0.016493 0.0084954 -0.01665 0.012258 -0.10995 -0.02173 0.0030676 0.071748 -0.012394 -0.0015254 0.013687 0.045207 0.084524 0.089946 0.20565 0.01394 -0.061684 -0.080304 -0.035619 0.038721 -0.034442 -0.088386 -0.044787 0.032287 0.0097599 0.040589 -0.0047314 -0.07275 -0.063127 -0.0543 -0.15024 -0.031662 -0.066343 0.057901 -0.037972 -0.082563 -0.022098 0.040966 0.067374 0.057119 0.022954 -0.10917 -0.12441 -0.13624 0.0040737 0.026037 -0.016971 0.031536 0.036553 0.10852 -0.0081428 0.053163 0.049945 0.017815 0.087982 -0.045848 0.0066706 0.033914 0.066808 -0.043119 -0.036779 -0.012763 0.0048488 0.024119 -0.14675 0.099797 0.0068459 -0.030309 -0.14997 0.15471 -0.095064 0.080154 -0.16811 -0.0157 0.1235 -0.11106 0.025353 -0.023736 -0.030786 0.023972 -0.11781 0.10534 0.061557 0.036877 -0.0088022 0.10881 -0.036529 0.0057541 -0.03477 0.010326 -0.12112 -0.02701 -0.010601 0.072074 0.035494 0.043494 0.062371 -0.055769 -0.058139 -0.23589 -0.084561 -0.2021 0.066847 -0.0125 -0.046636 0.1103 0.055298 0.0040863 -0.11604 0.0035735 0.0080476 -0.074659 -0.0014424 0.0052164 -0.023581 0.080939 -0.066412 -0.13151 -0.018388 0.02038 0.013643 -0.01129 0.032421 0.11679 -0.15427 -0.064218 0.061852 -0.11901 0.082448 -0.10786 0.034078 0.039081 0.048103 -0.074604 0.053745 0.05012 -0.018594 0.0044012 0.035415 0.014719 0.020326 -0.041201 -0.064693 0.10132 -0.053988 -0.10862 -0.084197 0.0033636 -0.02106 -0.050824 -0.018444 0.13182 -0.039641 0.10463 -0.010039 0.034151 0.029798 0.071821 -0.031015 -0.050342 0.073488 0.030725 -0.20845 -0.0015984 0.0089223 -0.076166 0.13452 -0.065755 0.037924 0.050224 -0.017723 -0.048993 -0.011083 -0.11752 0.054551 0.053582 -0.0020463 0.0019789 0.020367 0.064919 0.055584 0.067409 0.013834 0.13398 0.074201 0.041239 0.062774 0.077169 0.034254 -0.093864 -0.015269 -0.031867 0.15227 0.084548 -0.031007 -0.0052354 -0.043713 0.010388 -0.017384 -0.056463 -0.0086362 -0.054124 0.023667 -0.067052 -0.013355 0.04341 0.012246 0.020851 0.01584 0.051486 -0.036521 -0.012064 0.032586 0.15657 0.10165 -0.14413 0.023526 0.25399 0.031622 -0.070615 -0.13061 -0.011896 0.029961 0.029758 -0.10739 -0.13009 0.015845 -0.017982 -0.066159 0.012083 0.011295 0.01982 -0.026233 -0.098246 0.10905 -0.044404 -0.010821 -0.032465 -0.061207 0.18123 -0.037161 0.045084 -0.12185 -0.052373 0.02006 0.014647 -0.023101 0.018058 0.014885 -0.044304 -0.027582 0.040349 -0.10584 0.020123 -0.038782 0.031562 -0.043021 -0.040447 -0.046997 -0.18735 0.0098058 -0.012402 -0.054815 0.029866 0.17713 0.28929 0.017347 -0.10962 -0.017327 -0.064344 0.044781 0.026597 -0.01014 0.098449 -0.041377 0.16375 -0.061151 -0.019017 -0.049002 -0.01766 0.07708 -0.028175 0.093585 -0.15598 0.14017 0.088877 0.054113 0.022823 0.090488 0.068635 -0.03112 -0.043578 0.054397 -0.019735 0.063615 -0.21467 0.060215 -0.083703 0.0070101 0.025295 -0.091204 0.027049 -0.053469 0.080626 0.089348 -0.043303 -0.0044812 0.0055126 0.026556 0.15602 0.016056 0.067195 -0.060065 -0.031513 -0.026777 0.12085 -0.045728 0.056527 0.0077781 0.028457 0.054219 0.10264 0.091343 -0.026878 0.035078 0.047254 -0.065925 -0.065281 -0.069107 0.030235 -0.10973 0.032158 -0.055867 -0.10292 0.18952 -0.057913 0.099054 0.012758 0.10607 0.10029 0.14869 -0.024373 -0.0081642 -0.0038916 -0.014318 0.1141 -0.082032 0.081349 -0.081122 0.0063336 -0.1574 0.0069514 -0.14194 -0.070792 -0.052297 0.045251 -0.12175 0.11657 0.026462 0.089592 0.058116 0.038754 -0.037161 0.045358 0.15752 -0.022748 0.12627 0.022393 0.17204 0.078061 0.030059 -0.07001 -0.09771 0.018474 -0.14982 0.054549 -0.01438 0.0585 -0.048917 -0.16563 0.0068925 -0.071845 0.076259 0.059423 -0.087789 -0.0051545 0.049372 -0.015101 0.065837 -0.018494 -0.02883 0.044394 -0.15099 0.022844 -0.18104 -0.010141 -0.15637 0.063916 0.0093266 0.028214 -0.1146 0.052502 0.11099 0.035277 -0.088731 -0.083002 -0.026001 0.060644 0.092934 0.021991 -0.01165 0.09602 -0.086866 -0.022694 0.14854 -0.10469 -0.059245 -0.01414 -0.13633 -0.10642 0.065634 -0.022058 0.18473 0.058773 0.089202 0.10816 -0.016705 0.0081678 -0.098621 -0.058008 -0.034351 -0.034927 0.076832 -0.03705 -0.00090363 -0.0012057 0.023369 -9.3049e-05 0.014336 -0.025994 0.022042 0.04186 -0.038887 0.06936 0.045826 0.0026576 0.066977 0.09397 
test 0.022108 0.094551 0.094648 -0.13804 -0.058855 -0.11199 -0.18688 -0.0023332 -0.081289 -0.0058487 0.066165 -0.092873 0.02591 -0.038475 0.012801 -0.094184 0.07576 0.00040135 0.082638 0.09034 -0.031199 -0.044261 -0.024392 0.065881 0.0076882 -0.14787 0.033413 0.10736 0.074662 0.025936 0.16869 0.019332 -0.037529 0.038807 0.061162 -0.10987 0.075322 0.1684 -0.1103 -0.14124 0.10025 -0.0746 -0.21424 -0.16428 -0.095657 -0.094224 -0.087679 0.059335 0.069423 0.064895 -0.14525 0.0051076 0.13611 0.03029 -0.069732 -0.053117 0.27373 -0.0086156 0.089651 0.026148 -0.09826 -0.099259 -0.1159 -0.066956 0.028812 -0.049634 -0.033138 -0.087134 0.086015 -1.6564e-05 0.021158 -0.059896 -0.0066673 -0.034218 -0.068541 0.095557 0.084791 0.15595 -0.078231 -0.13254 0.061159 -0.011634 -0.23219 0.061833 -0.0641 0.1118 0.025924 0.06694 -0.1139 -0.041563 -0.0048499 0.17537 0.037738 0.05496 0.004054 0.14612 -0.090431 -0.10906 -0.11994 -0.061509 -0.093462 -0.089397 -0.051292 -0.054054 0.035883 -0.041032 0.14148 0.22713 -0.13582 0.025697 -0.070098 0.086178 0.11094 -0.028483 -0.20345 0.050671 -0.1777 -0.067379 -0.02602 -0.05407 -0.014714 0.047552 0.093617 0.087979 -0.02734 0.072239 -0.048758 -0.090231 -0.044698 0.02366 -0.052422 -0.20144 0.0086102 -0.11553 0.10777 0.019386 0.066094 0.0071023 -0.0010461 0.059593 -0.0035583 -0.026517 -0.0091054 -0.070809 -0.10865 -0.16576 0.081169 0.042952 -0.067192 0.051664 -0.098624 0.002675 0.010756 -0.037416 -0.16068 0.16587 0.0082771 0.0024519 0.054744 0.024495 -0.066242 0.087177 0.045478 0.09303 -0.0068303 0.059051 0.14281 -0.079925 -0.0031164 -0.064214 0.048162 0.028413 -0.0015952 0.042067 -0.067398 -0.060765 -0.034284 0.048688 -0.026735 -0.052106 0.23291 -0.0057063 -0.09089 0.019395 -0.034255 0.029176 -0.043026 -0.0798 0.073649 0.13126 0.084732 -0.0065988 0.023615 -0.15452 -0.11357 0.058279 -0.14482 0.095953 -0.037623 0.09264 -0.029984 0.049441 -0.080296 -0.013269 0.016955 -0.038809 0.06612 -0.034042 -0.039136 0.13803 -0.027548 -0.15482 -0.028199 -0.086554 0.078416 0.011844 -0.13571 0.15752 -0.096955 0.14685 -0.09467 0.20234 0.04466 0.15692 -0.17324 0.079978 0.063192 -0.00047725 0.062548 0.058048 0.049024 -0.081731 0.013182 0.11303 0.094096 0.15039 0.0094429 0.078593 -0.011033 0.018526 0.024458 0.03246 -0.070119 0.0046739 0.075687 -0.028304 -0.034421 -0.0014849 0.074253 -0.13262 -0.079596 -0.13826 -0.073673 -0.086025 0.016172 -0.040328 -0.068915 0.10805 0.013165 -0.048219 -0.11443 -0.021654 0.005738 -0.19358 0.019089 -0.020555 -0.050102 0.077008 -0.12311 -0.1229 -0.028608 0.046408 -0.087101 0.011424 -0.013092 0.1911 -0.013808 -0.048167 0.012331 -0.13183 0.1461 -0.12589 0.1606 0.050692 0.016978 -0.10104 0.063645 0.0051722 0.087571 -0.035257 0.12699 0.059413 0.014833 -0.01519 0.010012 0.13633 -0.013985 -0.039624 0.012419 -0.0040305 -0.022548 0.056361 -0.023792 0.10871 -0.10659 0.28465 0.005142 0.022844 0.1586 0.12898 0.016162 -0.17339 0.066616 0.055226 -0.040132 -0.11519 0.064425 -0.095184 0.015828 -0.11932 0.016044 0.01913 -0.02273 -0.0026869 -0.032587 -0.16411 0.009253 0.035524 0.014626 0.057276 -0.10217 0.068693 -0.013176 -0.0083002 -0.01771 -0.032475 -0.020287 -0.04069 -0.039212 0.035513 0.024419 0.0056737 -0.0080006 -0.072145 0.051953 0.040122 -0.056004 0.074881 -0.0052322 0.030308 -0.042908 -0.095875 0.1674 -0.039159 0.058294 -0.049965 -0.12633 -0.039492 0.09182 -0.022043 0.023587 -0.07571 -0.088893 0.018977 0.051521 -0.036829 0.014167 0.091917 -0.080767 0.12994 -0.0070733 -0.029921 0.062346 -0.057502 -0.10514 0.071948 0.045659 -0.014192 -0.065668 0.084595 0.069177 -0.043684 -0.046646 -0.029594 0.0064428 -0.17759 0.1703 0.0054984 0.10202 -0.070303 -0.0054698 0.062584 0.014356 0.12662 -0.082464 -0.010446 -0.028404 0.19345 0.011671 0.038427 -0.043255 -0.18612 0.0052968 -0.011642 0.054103 0.077855 0.011937 0.105 -0.02734 -0.037587 -0.066825 -0.062821 0.05193 -0.023976 0.038082 -0.0029095 0.097762 0.050979 -0.043636 0.016858 0.062027 0.072907 0.050167 -0.0074478 -0.051478 -0.012015 0.039376 0.14655 -0.09874 -0.02124 0.045483 -0.013014 0.023192 0.10972 0.087226 -0.021413 0.10146 -0.066682 -0.041809 0.0079912 -0.0073774 0.017742 0.036598 -0.061613 -0.0027154 -0.043586 -0.031878 -0.14652 0.052439 0.10657 0.023836 -0.032708 0.023896 -0.0048272 -0.023213 -0.048429 -0.0059679 0.039681 0.0086823 -0.054118 -0.027152 0.038393 0.069242 0.072242 -0.073973 -0.03591 0.024293 0.044662 0.017377 0.18096 0.020153 -0.034968 -0.14508 0.060505 0.05443 0.043498 -0.0084966 -0.014448 0.050853 0.071194 -0.0083694 0.063169 0.013705 -0.10014 0.10239 0.035327 -0.0011626 -0.033378 -0.012578 -0.034114 0.098588 -0.035338 0.032541 0.049499 0.033182 0.025499 -0.072645 -0.10137 0.064809 0.08594 -0.081194 -0.019853 0.074691 -0.016233 -0.14663 -0.045092 -0.053273 0.068449 0.0051129 0.070299 0.057161 0.031517 0.13709 -0.014414 -0.0082056 0.087961 0.014296 0.047056 0.074645 0.015132 0.101 -0.050933 0.02192 -0.031416 -0.094955 -0.0028068 -0.097481 0.068827 -0.067482 -0.0036024 -0.023733 -0.10232 -0.033178 -0.09097 -0.092362 0.015058 0.04431 -0.051399 0.021768 0.13247 0.018634 0.043457 0.029238 -0.0433 -0.010909 -0.0139 -0.1434 -0.025924 -0.026315 0.062399 -0.047798 -0.035132 -0.11889 -0.11341 0.16484 -0.05231 0.0084001 -0.0085897 -0.00041484 -0.056355 0.061311 -0.066337 0.038666 0.079837 -0.1544 0.020287 0.057949 0.075752 -0.078437 -0.098536 0.024119 0.019717 0.034773 -0.0016786 0.099657 0.070217 0.099676 0.01607 -0.043788 0.04826 0.093381 -0.11008 0.014405 -0.062813 -0.023974 -0.059015 -0.023268 0.12203 -0.012071 0.13299 0.010703 -0.074957 0.028249 0.010303 -0.13395 0.04306 0.082357 0.025316 0.037506 0.055544 
engineering -0.038439 0.0601 0.12802 -0.1132 -0.052723 -0.09583 -0.07679 -0.058129 0.12544 0.085766 0.021018 -0.16485 0.097408 -0.016952 0.019378 -0.053616 0.061973 0.11652 0.16457 0.079756 -0.15946 0.06207 0.1992 0.049424 -0.029588 -0.041435 0.064434 0.016193 0.048621 0.031455 0.10305 0.024125 -0.070336 0.024135 0.21789 -0.094733 0.056425 0.052653 0.014215 -0.084043 0.028876 0.0015053 -0.019729 -0.11364 -0.17138 -0.037475 0.03259 -0.046424 0.19866 0.026181 -0.23744 0.08028 0.17614 0.05225 0.096183 -0.044694 0.12919 0.086676 -0.03968 0.061438 -0.028704 -0.14851 -0.13724 -0.17104 -0.026617 -0.081004 -0.18645 -0.068098 0.17437 -0.1017 0.10793 0.015497 0.10745 0.11049 -0.088416 0.10651 0.1005 0.10452 -0.045809 -0.076591 0.10672 -0.017372 -0.065824 0.0034869 -0.11242 -0.11722 0.05716 0.015379 -0.13176 -0.0044536 -0.057027 0.13754 -0.09978 0.025828 0.043413 0.011186 -0.075519 -0.057842 0.029315 -0.074124 0.028774 -0.11958 -0.09823 -0.10156 0.026116 0.0042266 0.093204 0.14917 -0.012364 -0.085861 -0.088306 0.0086354 0.079631 0.092518 0.13776 -0.10012 -0.16718 -0.091795 0.10258 -0.16624 0.025606 0.043499 -0.0093933 0.15902 0.11106 -0.037411 0.01551 -0.017322 -0.15289 0.0056548 -0.063161 -0.030132 -0.00063175 -0.07682 0.14667 -0.0078835 -0.03759 -0.028364 -0.026446 0.091237 0.0028762 0.0447 0.10312 -0.067707 -0.08738 -0.079208 0.1221 0.1041 -0.065307 0.072876 -0.16724 0.068606 0.031934 -0.0025345 -0.059982 0.035081 0.027872 0.087119 0.070916 0.024199 -0.11502 0.099181 0.014607 0.018992 -0.037887 -0.089857 0.12312 -0.04334 -0.024867 -0.068722 0.033661 0.13789 0.064773 0.049145 0.076349 -0.027507 0.13193 0.12224 -0.069137 -0.10331 -0.027398 0.038835 -0.061344 -0.0043561 0.02514 -0.039685 0.039031 0.089874 -0.038126 0.053134 0.0070082 0.10117 0.0066032 -0.15165 -0.10101 0.034871 0.0022769 0.033629 -0.024565 0.12495 -0.024496 -0.013732 -0.11172 -0.0021332 0.035022 0.018427 0.090038 -0.02796 0.0061279 0.10669 0.028795 0.061435 -0.0050458 -0.14202 0.10488 0.25352 -0.035135 0.0052411 -0.0093826 -0.12228 -0.0842 0.18558 -0.15217 0.17781 -0.076434 0.00030488 0.14271 -0.074476 0.029672 0.05831 -0.027133 -0.0092115 -0.12574 -0.020888 0.071598 0.16492 0.018269 0.1574 0.046881 0.11816 -0.085182 0.042695 0.0098839 -0.071446 -0.050813 0.065059 -0.051015 0.11429 0.060125 -0.10847 -0.093022 -0.0059853 0.03346 -0.14307 0.011178 -0.0074541 -0.10164 0.04983 0.084414 -0.10948 -0.083688 0.08191 -0.064213 -0.011104 0.0046578 0.010607 -0.1041 0.036555 -0.12662 -0.062785 0.0096724 -0.044512 0.0067346 -0.030557 -0.074639 -0.12239 -0.13367 -0.11061 0.035132 -0.00068813 0.11542 -0.18466 -0.014769 -0.018507 0.025357 0.078067 0.11725 -0.018653 -0.039628 -0.0067286 -0.01553 -0.017437 0.018986 -0.00013989 0.012432 0.049823 0.083277 -0.06843 0.094756 0.1278 -0.020364 -0.020038 0.027464 0.07339 0.0031336 0.13508 0.076877 0.097883 0.1935 0.048727 -0.018262 0.0073541 -0.078523 0.041618 -0.17831 -0.10449 -0.0040936 -0.064962 0.06812 -0.094803 -0.020128 0.0041439 -0.12774 -0.10858 -0.11417 -0.054576 -0.013893 -0.043476 0.010904 0.15491 0.16619 0.14515 -0.01348 0.060852 0.038209 0.02287 -0.013684 0.11451 0.14087 0.12804 -0.10904 -0.0073087 0.088345 -0.043929 0.16625 0.27668 0.010651 -0.057435 -0.065148 0.12234 -0.064152 -0.10846 0.081926 0.022585 0.10456 -0.015348 -0.18247 -0.023093 -0.1551 -0.024592 0.081188 -0.021282 0.016068 0.01023 0.13097 0.11023 0.14267 0.044519 0.01836 0.17595 0.059377 -0.091506 -0.18647 -0.020995 -0.14586 0.21221 -0.15897 0.016051 -0.15904 -0.012304 0.013718 -0.004221 0.015495 -0.14983 -0.087916 -0.13547 0.13504 -0.031974 0.018742 0.045923 0.0027896 0.040159 -0.074427 0.18087 -0.0089879 -0.085553 0.073355 0.13685 0.0012441 0.10241 0.0059801 0.061075 -0.13198 -0.035579 -0.024809 -0.004429 0.0080694 0.00016444 0.03615 0.07381 -0.12029 -0.18697 0.18411 -0.073476 -0.035222 -0.086341 0.082834 0.13064 0.05127 -0.11795 -0.16523 0.031962 0.021114 -0.034272 -0.053778 0.14514 -0.022439 0.13942 -0.01175 -0.028879 -0.060411 -0.13304 0.043919 0.063399 0.087956 -0.069463 0.10332 -0.041747 0.082988 0.05411 -0.13816 0.057666 0.058483 -0.02123 0.080168 0.0012529 -0.097872 -0.33682 -0.031676 0.11318 -0.075986 -0.063938 -0.081582 0.0026485 -0.075794 0.1561 -0.02103 -0.15269 0.20618 -0.086892 0.22377 0.095139 -0.0098295 0.19446 -0.082028 -0.05061 0.17695 0.24113 0.040096 0.21986 -0.0089905 0.024324 -0.059895 0.032351 0.16368 0.084432 0.093699 0.068999 -0.023799 -0.19176 -0.097476 0.078518 -0.042821 -0.066561 0.01087 -0.16943 0.20805 -0.097323 0.085809 0.027909 0.10069 -0.030736 0.092837 0.059793 0.064227 -0.020194 0.084928 0.15005 0.11166 0.048657 0.10149 -0.048038 -0.12024 0.086335 -0.054424 -0.16909 -0.17045 0.081844 -0.087851 0.1003 0.070836 0.04285 -0.01165 0.20393 0.048017 0.00062912 -0.0045334 -0.028425 0.1367 -0.041492 0.27612 0.10549 0.043377 -0.083193 0.016362 0.19566 -0.13721 0.22595 1.1096e-05 0.061119 -0.16333 -0.25025 -0.087333 -0.0055359 -0.04154 0.10835 -0.10194 0.055914 0.17056 0.18691 0.10307 -0.044248 0.037174 -0.12471 -0.0547 0.1793 -0.15099 -0.068164 -0.032608 0.11011 0.087777 0.1694 -0.26935 0.11238 0.15207 0.12071 -0.10487 -0.044723 0.019647 0.072407 -0.069127 -0.032051 0.057009 0.091407 -0.1147 -0.14689 0.15746 -0.0023723 -0.1145 -0.082419 -0.092857 -0.069045 0.041509 -0.012187 0.17075 -0.097376 0.067516 0.015383 -0.083287 -0.02294 -0.026033 0.0015692 0.07245 0.047966 0.021677 0.044636 -0.017143 -0.12049 -0.095139 0.10165 -0.032027 -0.071459 0.16379 0.20603 -0.13663 -0.035625 0.1988 -0.0048762 0.077407 0.1184 
delivery -0.017929 0.062686 0.030502 0.054523 -0.025213 0.058321 0.047923 0.010641 0.12701 -0.16115 0.060322 0.074666 0.19504 -0.030545 0.041953 0.024344 0.051592 -0.039644 0.096852 0.016001 0.11403 -0.039916 0.10111 -0.0593 0.10888 -0.15514 -0.057714 0.069743 0.093506 0.056756 0.08254 0.080776 0.15046 -0.021097 0.012018 0.074686 0.090503 0.25511 -0.11045 -0.063703 -0.028231 0.13771 -0.21335 -0.043207 0.08682 -0.087041 -0.0095909 0.02693 -0.0039705 -0.13525 0.10483 -0.056898 0.029047 -0.16892 0.25203 0.10051 -0.12782 0.0078932 0.045494 0.11118 0.022616 0.0050209 -0.16875 -0.10366 -0.090223 -0.14132 0.10501 -0.015648 -0.018638 0.044154 -0.0024602 0.17923 -0.025461 -0.0312 -0.083199 0.010287 0.19154 -0.10876 0.21331 -0.0065338 0.055201 -0.097894 -0.0015591 -0.17857 -0.083218 -0.24143 0.051447 -0.20841 -0.087288 0.14826 -0.037414 0.14246 0.047881 -0.063629 -0.07527 0.055205 -0.0049724 -0.072642 0.053002 0.0068348 -0.028736 -0.032663 -0.13639 0.13588 0.016967 -0.062512 0.11991 0.080792 -0.26812 0.0069504 -0.1056 0.049962 -0.028201 0.061105 -0.042266 0.083814 -0.090611 -0.0087402 -0.12213 0.040515 0.099775 -0.14254 0.030916 -0.10746 0.10169 0.0010344 0.13153 0.16828 0.19112 -0.091114 -0.051039 -0.068377 0.066353 -0.21462 -0.18683 0.085172 0.066429 -0.039335 0.022906 0.15633 0.049737 -0.043107 0.016893 0.063948 0.046151 -0.096354 -0.0086396 0.028564 -0.17813 -0.033752 0.088129 -0.046305 -0.11364 -0.12192 -0.0049759 0.21953 -0.025911 0.1632 0.15058 -0.0018404 -0.016654 -0.048873 0.058597 -0.066659 0.016517 0.11612 -0.13529 -0.073258 0.032431 -0.15078 -0.018298 -0.097414 -0.039512 -0.016059 0.0635 0.029625 -0.19907 0.097177 -0.14007 -0.088814 0.049637 -0.039752 0.004809 -0.032465 -0.20735 0.079882 0.17952 0.1448 -0.039802 0.055213 -0.0083388 0.042295 -0.010616 -0.052984 -0.17354 -0.20479 0.063026 0.24797 -0.12731 0.081429 -0.011931 -0.036779 -0.029172 0.11472 0.15248 -0.020819 -0.097552 -0.051812 0.065612 0.11375 0.057006 -0.024312 0.2763 0.063715 0.13611 -0.056621 0.0024373 -0.01573 -0.037974 -0.062744 0.0068098 0.027722 0.066414 0.033241 -0.081538 0.096307 0.22258 0.034656 0.1338 -0.044395 0.017408 0.11913 -0.021625 0.082869 -0.11342 0.057723 -0.032423 -0.0078073 -0.15099 0.026188 0.16679 0.11511 -0.021581 0.1371 -0.082898 0.079429 -0.021804 -0.068227 -0.036828 0.17286 -0.061418 0.027376 -0.13528 0.05819 0.1113 0.067097 0.0032032 0.14518 -0.10232 0.095587 -0.069083 -0.032902 -0.13435 -0.19281 -0.097034 -0.062774 0.18347 0.02049 -0.13778 0.14734 0.0017432 0.23552 -0.023101 0.0042915 -0.13738 -0.0059057 -0.0050543 0.087206 -0.097447 -0.23031 0.19938 -0.069803 0.020895 -0.028572 0.11628 -0.010395 -0.077249 -0.10561 -0.24468 -0.0042844 -0.071004 0.061935 -0.067453 -0.017274 0.15232 0.067929 0.030902 -0.039669 0.17722 -0.067837 -0.10314 0.13634 -0.13013 0.16031 -0.032417 0.087628 0.080333 -0.0053258 -0.02725 0.019883 -0.051395 -0.10899 -0.011953 0.12338 -0.1913 -0.033344 0.049095 0.16344 -0.053148 -0.02056 0.10093 -0.030559 -0.048478 -0.27292 -0.2296 -0.12844 -0.072743 0.075024 0.10301 0.070694 0.056237 0.10192 -0.054336 -0.065508 -0.019766 0.039314 0.0012424 0.026098 0.089091 0.082183 -0.1409 0.042639 -0.0088304 -0.075166 0.020669 0.081402 -0.06273 0.032634 -0.13932 -0.027973 0.022864 0.049056 0.060968 0.17577 -0.10498 0.095223 -0.096438 -0.0035649 -0.17781 0.031477 -0.061107 0.0038847 0.055731 -0.1373 0.02184 0.098043 0.17863 0.091476 -0.19843 -0.099552 -0.012322 0.025139 -0.128 0.075086 -0.054174 0.093387 -0.0049434 0.040634 0.083278 0.10456 0.19189 0.15883 0.10968 -0.12383 -0.0093721 0.020006 -0.017102 -0.080762 0.11839 0.18524 -0.037072 -0.20387 -0.14634 0.12739 0.044769 0.086646 -0.090001 0.050393 -0.0010783 0.050004 0.047302 0.0099769 -0.080877 -0.14853 -0.085142 -0.046662 -0.057428 0.11434 -0.098122 0.00082613 -0.02904 -0.049633 0.11032 0.018554 0.039545 0.063039 -0.046901 -0.012082 0.11721 -0.093466 -0.049919 -0.061339 0.0087462 -0.159 0.034217 0.11558 -0.12062 0.035725 0.11946 -0.084541 -0.14613 -0.010131 0.038834 0.15838 -0.049848 -0.066417 0.14886 -0.12239 0.1313 0.017136 -0.067819 -0.080307 -0.072168 -0.10095 0.21965 -0.117 -0.09918 -0.13354 -0.15222 -0.00095104 0.017767 0.08246 -0.0085488 0.21414 -0.040455 -0.051861 0.12417 -0.16706 0.061415 -0.26713 0.097882 0.11064 -0.06124 0.050504 0.18415 -0.10353 0.12608 0.063878 0.06836 -0.124 -0.18388 0.022541 0.086194 0.19548 0.17781 0.15115 -0.054973 0.10282 -0.025993 -0.072066 -0.05395 -0.043136 -0.15852 -0.36375 0.029551 0.061989 -0.17372 0.024608 0.06552 0.14906 0.036294 0.21717 -0.045299 0.083263 -0.052256 0.088518 -0.029807 -0.032694 -0.12932 -0.041961 0.0025254 0.10687 0.0051754 -0.14472 -0.015263 -0.12717 0.061773 0.0052266 -0.14713 0.060659 0.053625 0.076258 -0.00086838 0.20726 -0.068174 0.13877 -0.12471 -0.053902 -0.096893 0.01649 0.17748 0.029132 -0.086491 -0.13489 0.072682 0.057515 -0.020927 0.13749 0.09938 0.16687 -0.098319 0.045585 -0.08247 -0.036444 0.13837 -0.17178 -0.042612 0.07815 -0.0076547 0.018584 0.05249 0.046953 0.1545 -0.1107 -0.17953 0.098633 0.058243 -0.23118 -0.077923 -0.024324 0.077334 0.071823 -0.066924 0.083395 0.060215 -0.018344 0.067586 -0.020956 0.13329 -0.031012 -0.169 0.052352 0.018204 -0.15058 0.16404 -0.058636 -0.092659 -0.055949 0.0018782 -0.0052803 -0.023959 0.034208 0.056843 -0.14089 0.069262 -0.074616 -0.029235 -0.074536 -0.13297 0.21453 -0.17422 0.15402 0.16646 0.1721 -0.013622 -0.0526 -0.084316 -0.043555 -0.065593 0.029106 -0.024394 0.017214 0.02783 0.23185 -0.028902 0.12152 -0.058108 0.03464 -0.0774 0.024208 
to -0.049198 -0.1889 0.023643 -0.13897 -0.043996 -0.11598 -0.21945 0.082906 -0.05391 -0.0032854 0.08332 -0.0061846 -0.10208 0.0065672 0.075816 0.050963 0.026766 0.10506 -0.027004 0.040766 0.021373 -0.083924 -0.073657 0.067762 0.0017336 -0.081949 0.20715 -0.024494 0.083679 -0.12636 0.095912 -0.0035318 -0.06255 -0.058301 -0.010896 0.02744 -0.0017069 -0.051622 -0.078699 -0.043833 -0.058172 0.026859 -0.042442 -0.10756 -0.15548 -0.0073154 -0.044508 0.035607 -0.0093209 -0.029664 -0.029503 0.007023 -0.068314 0.099386 0.0086739 0.065707 0.070585 0.10302 0.0091556 0.045438 0.023919 -0.08533 -0.019803 -0.13784 -0.11802 -0.052174 -0.13026 -0.0031392 -0.10008 0.080092 -0.054024 -0.016303 0.038724 -0.000888 -0.14562 0.10063 0.035726 0.035166 0.0015323 0.11148 0.063861 -0.092021 -0.13313 0.092703 -0.038243 -0.031364 -0.018279 -0.044055 0.091079 0.077412 0.030625 0.0010927 0.043741 0.095621 0.020446 -0.095468 -0.0025477 -0.12976 -0.080516 0.0061814 0.072635 0.022519 -0.12245 -0.018579 -0.097236 -0.14837 0.13769 0.19027 -0.024358 -0.11645 -0.027675 0.14561 0.053038 -0.073935 -0.086967 0.10806 -0.03124 -0.012433 0.060238 0.0070288 -0.11785 0.16089 0.038948 0.075491 0.0041908 -0.0072789 0.029825 -0.057143 0.025798 -0.053421 0.046149 -0.074769 0.044776 -0.02378 -0.061841 0.10381 0.032596 -0.0021365 -0.075486 0.011567 0.14798 -0.12781 0.0084977 0.044249 0.0059919 -0.08031 -0.041433 0.043216 0.04929 0.0050132 -0.010719 0.055982 0.11714 -0.093658 -0.04688 0.019182 0.073246 0.14522 0.10665 0.019037 -0.022268 -0.0026388 0.12087 -0.031256 0.050088 0.017421 0.017136 -0.00067427 -0.011402 0.051112 0.1605 0.074377 -0.079194 0.13787 -0.14529 -0.1646 0.016465 0.10153 0.04212 0.088784 0.08447 -0.12681 0.16783 0.017213 -0.062624 -0.0082706 0.10031 -0.097939 -0.017938 0.10557 0.063187 -0.013811 0.10458 0.041581 0.012073 0.13565 -0.039599 0.098792 -0.11496 -0.020709 -0.086484 -0.10649 -0.064642 -0.076533 0.01443 0.020597 -0.1268 -0.073019 -0.15393 0.1343 -0.091179 -0.048326 0.086303 -0.06932 0.073297 0.014126 -0.0097804 0.088957 0.11968 0.03037 0.032313 0.038889 0.12528 0.085378 0.045386 0.019933 0.13784 0.071327 0.072488 -0.03699 0.079138 -0.015542 0.069983 0.21512 0.079368 0.06765 -0.040711 -0.090301 -0.014956 0.11159 0.019043 0.048332 -0.10232 0.031644 0.27507 0.047674 0.069508 -0.022823 -0.033397 -0.080849 -0.036251 -0.072599 0.0043298 0.056879 -0.0067143 0.073852 -0.051185 0.18864 -0.12513 -0.038817 -0.08971 0.087269 0.14631 -0.08854 0.048774 -0.063865 -0.039962 0.042801 -0.057659 0.010067 -0.047143 0.13481 -0.037123 -0.10109 -0.10531 0.07037 0.052154 0.0025925 -0.025756 -0.077066 0.10051 0.048381 -0.055871 -0.005214 0.063974 -0.029689 -0.0028654 0.0067933 0.060038 -0.074888 0.027204 -0.010689 -0.022708 -0.031218 0.0017633 0.075974 -0.082588 0.012643 0.10155 -0.072127 0.047992 -0.0037117 -0.082257 0.099432 -0.10733 0.25383 -0.052122 0.018237 0.064914 -0.0013091 0.095836 -0.14698 0.021075 0.16478 -0.024079 -0.13881 -0.033541 0.019146 0.12013 -0.1215 -0.086798 -0.14475 -0.084445 -0.020627 0.084087 -0.11031 0.00024278 -0.074663 -0.046412 0.029759 0.11809 0.30869 0.022697 0.015807 -0.017418 0.016566 -0.11106 -0.094203 0.0043149 0.036181 0.022742 -0.082177 0.18191 -0.11253 0.092189 0.032507 -0.081859 0.10777 0.04308 -0.0050482 -0.049785 0.074328 0.16285 0.091057 0.12212 -0.056347 -0.20334 -0.015656 -0.0086498 0.11196 0.18513 0.045047 0.12088 -0.0040131 -0.0872 0.21723 -0.042874 0.099043 -0.042268 0.035694 -0.049912 0.016734 -0.11424 -0.11633 -0.17634 0.16208 0.041407 -0.05732 -0.0028297 0.028042 0.068211 0.060758 0.016736 -0.038194 -0.011922 -0.19184 0.19259 0.0063664 0.080923 0.1363 -0.078249 -0.0041834 0.038075 -0.047099 -0.049961 0.12633 -0.061846 0.13851 0.0053153 -0.096328 0.0073556 0.071243 -0.080659 -0.091136 0.042523 -0.074533 0.08749 0.037559 -0.04881 -0.030561 -0.020997 -0.017993 0.10458 -0.049194 0.013752 0.10581 -0.0435 -0.055217 0.035115 -0.1664 -0.061919 0.015233 0.11272 -0.10327 0.05162 -0.00074235 -0.075291 0.025009 -0.20545 -0.039351 0.00093112 -0.024628 0.061301 0.22678 -0.19127 -0.011017 0.17444 0.044551 -0.064132 0.13449 -0.16381 -0.093083 0.077273 0.047819 0.11474 0.020185 -0.068305 0.0029349 0.0064228 0.013923 -0.0033197 -0.0094583 -0.10966 0.10038 -0.045559 -0.084817 -0.12619 -0.050373 0.016382 -0.037319 0.013339 0.12301 -0.024484 0.13068 -0.010608 -0.013975 0.12525 0.0010809 -0.012604 0.15158 0.098551 -0.020998 0.036375 -0.018108 -0.049832 0.045072 -0.068387 0.072785 -0.048315 -0.051556 -0.0077126 0.13599 -0.021011 -0.17596 -0.038 0.038768 -0.0064961 0.11145 -0.014162 -0.050667 0.15143 0.10591 -0.062984 0.12604 -0.078615 0.088307 -0.064214 0.072573 -0.046783 -0.0010842 -0.032298 -0.086275 0.032872 -0.031084 -0.064127 -0.0067624 0.1111 -0.00027642 -0.076381 -0.07848 -0.096683 0.021034 -0.052545 0.15979 -0.047074 0.18118 -0.074054 -0.0093039 0.0036247 -0.068552 0.10384 0.022187 0.036809 0.13565 0.038143 -0.045915 -0.0438 0.069781 -0.019128 -0.036424 0.027734 -0.16863 0.038696 0.022117 -0.076983 -0.0087176 0.16991 0.096986 0.055586 0.18502 0.0575 0.051773 0.12201 -0.11902 -0.07338 0.046235 -0.12399 -0.0013923 0.13829 0.081609 0.066784 0.063378 -0.19536 -0.029884 0.1957 0.048323 0.073938 0.053905 0.023956 0.028292 -0.038262 -0.043698 -0.042329 -0.092428 -0.10841 -0.01145 -0.0053207 0.1267 -0.035706 0.056552 -0.013976 0.011713 -0.039629 0.015385 0.058361 0.001965 0.13408 -0.17311 -0.055612 0.26094 -0.049848 0.024462 -0.079036 -0.031409 -0.060881 0.022486 -0.057174 0.030045 -0.0036054 -0.035628 0.10516 0.012619 0.12441 0.082231 -0.066276 0.0063197 -0.11603 -0.10359 -0.026813 -0.049104 
system -0.066204 0.13588 -0.062676 -0.075323 0.037398 -0.070336 -0.10746 0.00045661 -0.07575 -0.13068 -0.12401 0.0043354 0.21925 -0.14067 0.021167 0.0072585 0.089762 -0.075973 0.16668 0.049015 -0.11873 -0.058389 -0.099588 -0.021197 0.17849 -0.0034862 0.10131 0.010094 0.049934 0.11708 0.031514 -0.037889 0.073024 -0.051695 -0.011286 -0.13747 0.015804 0.271 -0.2471 0.031714 0.14906 0.0085578 -0.21668 -0.26239 0.091456 -0.031451 -0.1475 0.12101 0.082329 -0.0085468 -0.057455 0.19931 0.077527 -0.01832 -0.065586 -0.089304 0.27795 -0.02177 0.054775 0.059488 -0.05869 0.074117 -0.02124 -0.046807 0.053096 -0.035155 0.18569 -0.21787 0.025983 -0.085609 -0.066404 0.014264 -0.0087245 -0.062113 -0.059335 0.034607 0.095973 0.18839 -0.006698 0.03253 0.095794 0.044189 -0.12761 0.099731 -0.19064 0.22313 0.038304 0.16274 -0.080724 0.13247 0.061915 0.13636 0.052315 0.10133 -0.064178 0.17714 -0.19854 -0.032283 -0.063393 -0.034401 -0.1822 -0.11154 0.019796 0.015245 -0.096681 0.02521 0.1291 0.16019 -0.26091 -0.00013446 -0.14687 0.066897 0.054261 -0.024065 -0.15954 0.11386 -0.088875 -0.00074825 -0.071465 0.013412 -0.050494 -0.021688 0.12754 0.06092 -0.096829 0.14961 0.057315 0.050166 0.045077 -0.024105 -0.12716 -0.13912 0.024645 -0.054553 -0.044758 -0.043921 0.045803 0.12193 0.022974 -0.027663 0.099778 -0.044888 -0.031688 0.0049565 -0.073231 -0.0067244 -0.0095919 -0.027819 -0.14087 -0.029562 -0.040486 -0.13995 0.07155 -0.0068215 -0.16299 0.28898 -0.14021 -0.14259 0.12947 0.092805 0.10289 -0.0785 0.078774 0.10697 0.10128 0.017773 0.21341 -0.084891 0.067803 -0.21518 -0.029098 -0.078167 -0.042193 -0.11072 -0.12205 0.013967 -0.044955 0.023263 -0.079614 -0.074779 0.088828 -0.0479 -0.14068 -0.15886 -0.047181 0.18076 -0.1187 -0.10152 0.039847 0.013255 0.035445 0.072732 -0.0048314 0.084543 -0.19416 0.0078506 -0.069978 0.12982 -0.027549 -0.038211 0.010109 0.094974 0.064551 0.043879 0.013264 -0.018447 0.052117 0.023935 -0.035397 0.17956 0.010069 -0.16024 -0.020068 -0.015341 0.14178 -0.1063 -0.10375 0.13591 -0.0015045 0.068463 -0.20072 0.07088 0.15265 0.049827 -0.090685 0.020704 0.14415 -0.095505 0.068504 0.050264 0.10978 0.029655 0.031674 0.28138 -0.04187 0.062963 0.048714 0.019015 -0.10329 -0.071904 0.11495 -0.022941 -0.050549 0.016485 -0.010353 0.14608 -0.029014 -0.033102 0.024515 0.0036769 -0.1589 -0.30379 -0.27112 0.033392 0.12833 -0.022161 0.079134 0.15421 -0.0040101 0.020895 -0.089873 -0.062983 0.040777 -0.18734 -0.058659 -0.017568 0.00068081 0.14807 -0.080518 -0.065555 -0.035975 0.2322 -0.039383 0.0032748 0.072095 0.23129 -0.015484 0.061684 -0.095529 -0.12459 0.099831 0.0002532 0.23756 0.029617 0.14873 -0.099408 -0.054026 -0.045694 -0.014476 -0.066137 0.15195 0.090938 0.012503 -0.069753 0.040052 0.23512 -0.02151 -0.014421 -0.17627 -0.054775 -0.00705 0.031601 0.016611 0.069718 -0.14198 0.24109 -0.075254 -0.017144 -0.043538 0.11399 -0.11789 -0.18774 0.029624 0.075604 -0.070873 0.031009 0.104 0.0010358 -0.046729 -0.088859 0.054604 -0.014592 0.023195 -0.10743 0.026676 -0.19996 0.15139 0.091525 0.11296 -0.071989 -0.13739 -0.050615 0.13049 -0.10665 -0.094996 -0.053228 -0.12966 -0.033826 0.074758 0.022621 0.029222 -0.015075 -0.10066 -0.090678 0.022968 0.078853 -0.057857 -0.032551 -0.08266 -0.13782 -0.10124 0.10868 -0.043351 -0.069473 0.0089601 0.0046427 -0.017649 0.0049233 -0.030009 0.016118 0.041268 0.045498 -0.066118 -0.019178 -0.04679 -0.0011552 0.016916 -0.071778 0.037177 0.13213 -0.069374 -0.026701 -0.062523 -0.090937 0.087447 0.0070895 0.037216 -0.011629 0.025574 0.11793 0.018324 0.00074254 -0.12204 0.032982 0.056559 -0.016157 0.14932 -0.011099 0.017513 -0.016026 -0.057786 0.1077 0.082902 0.070568 -0.0017771 0.089006 -0.078864 0.029497 -0.005628 -0.11696 -0.12906 -0.070083 0.093421 -0.044512 0.022878 0.085287 -0.027327 0.14375 -0.026356 0.0075098 0.039383 -0.00021517 -0.013969 0.049846 0.10971 -0.023159 0.047185 0.13443 -0.039276 0.17981 0.067813 -0.0833 -0.071193 0.026735 -0.026941 -0.045677 -0.049595 0.12106 0.0010777 -0.012479 -0.041937 0.023876 0.077945 -0.011891 0.063298 -0.067654 -0.037466 -0.037396 0.052269 -0.00020243 0.045328 -0.11966 -0.11198 -0.019763 0.04678 -0.038454 0.080669 -0.09384 -0.024989 -0.19282 0.12557 0.0060136 0.04178 0.043731 0.04292 -0.085479 0.14533 0.074241 -0.067515 -0.072575 -0.020514 0.068439 0.078447 -0.009861 -0.034994 0.039277 -0.14007 0.0097483 -0.01629 0.010488 0.035733 -0.051019 0.032239 0.13514 -0.041732 -0.084893 -0.037793 -0.027705 0.0056727 0.17693 -0.072356 -0.032639 -0.044363 -0.088044 0.069436 0.1077 -0.038936 -0.080332 -0.14959 -0.098018 0.0069757 0.11193 -0.012242 -0.085562 0.016669 0.054383 -0.17326 -0.075416 -0.071356 0.12723 -0.24472 0.073797 0.06653 0.010114 -0.085546 0.03766 -0.0073819 -0.040613 0.059593 0.027239 0.0091329 0.073346 0.02769 -0.13242 -0.14513 0.056502 0.051423 -0.02677 0.008865 -0.031563 0.07089 0.056128 0.07899 -0.14731 0.011942 -0.035665 0.020953 -0.05516 0.047786 0.017178 0.04354 -0.043822 0.047201 -0.085482 0.062821 0.059077 0.063448 0.018821 -0.15311 -0.052955 0.051093 0.014882 0.040177 0.087125 -0.029199 -0.049611 0.027159 0.00071245 -0.083987 -0.0039787 -0.056919 -0.18463 0.14938 -0.058061 -0.029003 -0.023858 0.0282 -0.19437 0.0086213 -0.0059777 0.096584 -0.021473 -0.11024 -0.00093456 -0.056607 0.15441 -0.022199 -0.0083819 0.012221 -0.057567 0.046995 0.01034 0.047235 0.020271 0.078656 0.049747 -0.069468 0.060424 -0.063618 0.00045703 0.048588 -0.07912 0.0042307 0.0082153 0.030489 -0.12116 -0.078084 0.024919 -0.019299 -0.006565 -0.099358 0.017118 -0.07033 -0.010451 -0.066015 0.051701 0.054409 -0.00097538 0.047023 0.0023737 
